#define DIM 64
#define HIDDEN_DIM 172
#define N_LAYERS 1
#define N_HEADS 8
#define N_KV_HEADS 4
#define VOCAB_SIZE 512
#define SEQ_LEN 512

PI_L2 float xb[DIM];
PI_L2 float weights_list[78272] = { -1.2870464325, 1.2370407581, 1.5454361439, 1.4917514324, 1.1787223816, -0.2411398888, 1.9975953102, 0.8258237839, -1.6041693687, 0.6438455582, 
0.3257801533, -0.6573419571, -0.1534906626, 0.3667452335, 1.9601211548, -0.0290491581, 0.3882985115, -1.9171591997, -0.8057911396, 1.7236926556, 
0.5259413719, 0.9442772865, 1.5557482243, 1.1782658100, 1.8725461960, 1.5884253979, 0.5567698479, -1.5161634684, -1.1263206005, -0.2370077372, 
-1.5088841915, -0.4133669138, -0.9999670982, -1.9634481668, -0.9216154814, -1.8212447166, -0.2045880556, -0.9240200520, 1.0045790672, 0.1912424564, 
1.7198255062, -0.6696407795, 1.5339004993, -0.4336651564, 1.6971042156, 1.4940218925, 1.5372858047, 0.0854029655, 1.5768625736, -1.2685054541, 
-0.1909044981, 0.1028041840, 1.6757717133, -0.6351562738, -0.7189302444, 1.5483179092, -1.0467307568, 1.8378396034, -1.9678455591, -0.1730513573, 
-0.3991680145, -1.4767298698, 1.4135818481, 0.6008648872, -1.4401779175, -1.5080336332, 0.7796201706, 0.3552339077, -0.4320536852, -0.2158007622, 
-1.4535233974, -0.7122282982, 1.1145584583, -1.9196228981, 0.8541064262, 0.8116626740, 1.5743987560, 0.3913922310, -1.1029343605, 1.1512615681, 
1.1228866577, 0.7061612606, -0.7459344864, 0.7986586094, -1.9289951324, 0.5351352692, 0.3469765186, -0.9757258892, 0.3729751110, 0.3791308403, 
0.8512227535, 1.9738070965, 0.9024009705, 0.2648043633, 0.5746719837, 1.4622230530, 0.7567708492, -0.6457078457, -0.1825429201, -1.6752829552, 
1.1384913921, 0.3639335632, -0.3875111341, 0.2530498505, 0.4443106651, -1.5334047079, -0.9352874756, 0.0187094212, 0.8579874039, -0.0382218361, 
-0.8300290108, -0.0191258192, -1.3320606947, 0.4240365028, -1.2204673290, -1.2610558271, -1.0408282280, 1.1265091896, -0.2367817163, 1.3321468830, 
-0.4943599701, -1.3855590820, 1.3059537411, -1.5919589996, 0.8792455196, -0.1193742752, 1.8702640533, -0.3639837503, 1.2349178791, -0.3122788668, 
-0.0392665863, 0.3734092712, -1.9483453035, 1.5732221603, -1.3735411167, 0.4959652424, -1.9601825476, -0.3088285923, -1.4853252172, 0.8978049755, 
1.6529495716, -0.3153542280, -1.1213207245, -1.6791112423, -1.8913177252, -0.3417879343, -0.9401670694, -0.9321459532, -1.2152788639, 0.8230512142, 
-1.5999990702, 0.2903611660, 1.4374921322, 1.7059547901, 0.6984021664, 0.3167376518, -0.4134196043, 0.5686662197, 1.9527537823, -1.1785017252, 
-1.7436126471, -0.0865128040, 1.1949074268, -1.6919579506, -0.5132906437, 1.8213663101, 0.8040072918, -0.4734730721, -0.4874622822, 1.3186819553, 
-1.5756680965, -0.8345127106, -0.9966721535, -0.6969888210, -0.5136239529, -0.8879899979, 0.9612231255, 0.5462090969, 0.1798641682, 1.7459442616, 
-0.6307396889, 0.5798649788, 0.0363056660, -1.1932475567, 0.2858197689, -1.2652921677, 1.1234900951, 1.8724002838, 1.3033740520, 1.0762438774, 
-1.3061015606, 1.5597612858, -1.0102689266, 1.8888058662, 1.8678033352, 0.4764404297, 1.7101721764, 0.6718106270, -1.9970326424, -0.7772899866, 
-0.0095074177, -1.5727007389, 0.3881971836, 0.9938204288, -0.2696895599, 1.8745732307, -1.8941695690, -1.3084663153, 0.4207823277, 0.2856945992, 
-1.5625219345, 1.7900426388, -1.1344404221, 0.4737834930, -1.4032049179, 1.1513793468, 1.2084913254, 1.7202851772, 1.0237793922, 0.5118653774, 
0.7965290546, 1.7176778316, 0.0716266632, 1.7862601280, 1.6064839363, -0.0605701208, 0.2627005577, 1.3166561127, -1.3887594938, 0.2656679153, 
-1.4606339931, 0.6017332077, 0.6929671764, 0.9275631905, -0.4044463634, -1.5767222643, 0.8021366596, -0.2986159325, -0.8851885796, -0.7770811319, 
1.9870786667, -0.4477105141, -0.9870384932, -1.1473617554, -1.9739269018, -0.3902434111, -1.9959824085, 1.2345643044, -0.6699583530, 1.0277969837, 
-0.2535703182, -1.8734294176, 0.7454750538, 1.8180563450, 1.9128305912, 0.3519587517, -0.2425136566, 0.1755311489, -0.3313851357, 0.3687267303, 
-1.5588009357, 0.2079808712, -1.0295400620, 1.1341664791, -0.8644558191, 0.5660135746, 1.5574440956, 1.9376807213, -1.7326024771, -1.3277444839, 
-0.8394004107, -1.7455238104, 0.2245450020, 0.1735610962, -0.8928855658, 0.2506179810, 1.7833175659, -0.8888679743, -0.5148175955, -0.8866406679, 
-1.8610709906, 1.2316122055, -0.7600700855, 0.8844039440, 1.0496685505, -0.8472394943, -0.7636371851, -1.1928453445, 1.3282916546, 0.9049777985, 
1.1758816242, 1.7694907188, -0.8870413303, -1.8536585569, 0.9036571980, 0.2485027313, 0.7123548985, 0.4611012936, 0.1861834526, 0.9797525406, 
1.1333568096, 1.3467831612, 1.2342288494, -0.6420983076, -0.4796557426, -1.6586568356, 1.6085197926, -0.6963380575, -0.5475248098, -0.9062979221, 
0.4170212746, -0.4085958004, -1.6746858358, 1.6569511890, -1.5241918564, 1.3749825954, -1.1902883053, -0.2878289223, -1.8178627491, -1.8619966507, 
-1.3828512430, 1.3580188751, 1.9074940681, -0.2698926926, 1.5043601990, 0.8111512661, 1.9786102772, 0.2167153358, -0.7277473211, 0.1647937298, 
-0.8035322428, -1.5943906307, -0.4884231091, -1.5693035126, -0.2364888191, 1.0319211483, -1.2279603481, -0.6279691458, -1.6644169092, 0.2245147228, 
0.4657328129, 0.7526044846, 1.8159189224, 0.7910470963, 0.4095554352, -1.7082728148, 0.1660296917, 1.2192671299, 0.0038981438, 0.3481669426, 
1.3572704792, 0.6210470200, -0.2938143015, 1.2647647858, -1.6488456726, -0.7894539833, 0.0759160519, -1.6702355146, 1.4272613525, 1.3481686115, 
0.4945580959, -1.3762708902, 1.7537779808, -1.9938650131, -0.9455744028, -0.4827108383, 1.0380561352, -0.1735346317, 0.8893198967, 1.3736393452, 
-1.9490197897, -0.6449471712, 0.1262435913, 1.8668992519, -1.8539001942, -1.4642007351, -1.8413736820, 0.3121294975, 1.7550663948, 0.1625244617, 
-1.3397036791, 1.1123368740, -1.2164285183, 0.3664820194, 0.3771016598, -0.8652741909, 1.5770280361, -1.5469822884, -0.5355098248, 1.0042893887, 
1.8011863232, 1.9590482712, 1.6280183792, 1.5549643040, 1.9651832581, -1.3175559044, -0.9277464151, 1.0032396317, 0.5089094639, 1.9615736008, 
0.3768787384, 0.5598895550, -0.6833735704, -1.4968775511, 0.4267888069, -0.5372737646, -0.9610784054, 0.5854151249, 1.7748556137, -1.2060120106, 
-1.2520604134, -1.5648479462, 1.9063251019, -0.4684889317, 0.8016340733, 0.2834267616, 0.6662368774, 0.3786621094, 0.7364442348, -1.8692729473, 
-0.6170486212, 0.5376305580, -1.9102245569, -0.9890301228, 0.0925948620, -1.9450411797, -0.3065861464, 1.1648485661, 1.0581984520, -1.7976768017, 
1.1264221668, -0.5649229288, 0.7622127533, -1.5569515228, -0.0618004799, -0.8109985590, -0.0942252874, 0.9771211147, 1.7744164467, -0.3193695545, 
1.7711093426, -1.4776439667, 0.1157824993, 1.6774342060, 0.0538671017, -1.0825834274, -0.0391390324, -1.2798960209, 1.2960786819, -1.3026947975, 
-1.1491689682, -1.3209699392, 1.2349357605, -1.0593934059, -0.3100001812, -0.6724692583, -1.0044345856, 1.3834137917, -1.5076206923, -1.9462362528, 
1.5857369900, 1.6188013554, -0.5111591816, 0.3479497433, -1.9381501675, 1.4270403385, 1.5369510651, -0.0323753357, 0.4041616917, 1.3113675117, 
1.6482551098, 0.1752707958, 1.8337235451, -0.2359623909, -0.1472947598, -0.1124092340, 0.6814541817, 1.8135662079, 0.6076946259, -0.0224672556, 
-1.4891285896, 1.4585258961, 0.6565628052, 1.7458071709, -1.6008677483, -1.6534373760, -0.9266619682, -0.6053023338, 1.7299764156, -0.4342826605, 
-0.5515385866, 1.3157134056, -0.8154813051, 0.9373021126, -0.3363369703, -0.7536314726, 0.3643426895, -0.7993859053, 1.2139933109, -1.2314958572, 
-1.4880182743, 0.8622484207, 0.9437751770, -1.6542947292, -1.3737140894, -1.2035195827, 0.2332961559, 1.3077399731, -1.3899534941, -1.1590092182, 
-0.7147272825, -0.8790820837, -1.7004834414, 1.9418354034, -1.1332747936, -1.3013510704, -1.7116019726, -0.0599367619, 0.0933465958, -1.9816255569, 
1.5057804585, 1.5418078899, 1.3340878487, -1.3097007275, 0.4791102409, -1.0022492409, -0.0633322001, -1.1565473080, 0.1983647346, -0.8493390083, 
-0.3880430460, 0.7103464603, -1.9870907068, -1.4442678690, 1.0560517311, -1.3608047962, -0.6477875710, -0.7106521130, 1.9469351768, -0.0377409458, 
0.1303386688, -0.7677919865, 1.0831768513, 0.4298553467, -0.8259565830, 1.9499020576, 1.1285040379, -0.5375584364, -0.1100347042, -0.7781493664, 
-0.5191839933, -0.6042541265, -1.2363413572, -1.1850962639, 0.0860450268, 1.2427687645, -0.1873456240, -1.9772871733, -1.9137785435, -1.9889807701, 
-0.8266260624, -0.3018214703, 0.7213656902, -0.8137167692, 0.2539105415, -0.2225825787, -0.1745215654, 1.6061229706, 1.0667653084, -0.2275862694, 
-0.4316179752, -0.8028960228, 1.0046217442, -1.3484410048, 1.6269593239, -1.8213348389, -1.3985388279, 0.7554633617, -0.3588933945, 0.4914264679, 
1.9773139954, 1.1219227314, 1.8871722221, -1.2590273619, 1.9368262291, -0.0267826319, 1.9837415218, -0.2505192757, -0.0040698051, -1.9300371408, 
-0.2395000458, 1.1693041325, -0.2318586111, -1.5181343555, -1.6444126368, -1.9779480696, 0.2592830658, 0.1810657978, 1.6281750202, -0.6739515066, 
1.9534795284, -0.8034429550, 0.5231523514, 0.9581012726, -0.1518839598, 0.1501116753, 1.1367661953, 0.4495770931, -1.0944249630, -1.2221270800, 
-1.0589964390, -1.1171109676, 1.8997955322, -1.1718239784, -0.3761383295, 1.8366219997, 0.8013932705, -0.3923969269, -0.4138972759, -1.2026764154, 
-0.3224339485, 1.3466026783, 1.9666275978, 1.4457073212, 1.8284683228, -1.6777849197, 1.4677593708, 0.0877516270, 0.5032808781, 1.0959343910, 
1.4138000011, 0.4567604065, -1.7075085640, -0.0630475283, -0.5851383209, 0.1406075954, -1.9129359722, -1.4483721256, -1.4098153114, -1.0073609352, 
-0.6704990864, -0.4688116312, -0.1244719028, -0.7707035542, 0.3593642712, 1.4993898869, -0.9340816736, -0.8392423391, -0.8930071592, 0.6520211697, 
-0.0419187546, 0.7845587730, -0.0013762712, -0.0752910376, 0.2302663326, -0.1729078293, 0.2469239235, -0.3019744158, 1.9148437977, -1.2497950792, 
-1.2060400248, 1.3286437988, 1.2069654465, -0.9135485888, -0.7344038486, -1.3781731129, 1.2270588875, -0.6473398209, -0.8265451193, 1.8172435760, 
0.3452992439, 0.5029556751, -0.6515679359, -1.7791726589, 1.7322521210, 1.7077963352, 1.7202172279, -1.2018294334, -1.1314460039, -1.1727900505, 
1.4501917362, 0.8266351223, 1.6117689610, -0.5511845350, -1.2486559153, -0.1579648256, 1.2759075165, 0.9982681274, 1.5400607586, 1.1907513142, 
1.7484729290, -1.6659792662, 0.5193948746, 0.9554383755, -0.5795278549, 1.7849910259, 1.5772652626, -1.3524688482, -0.8623487949, -1.2492797375, 
-1.5352251530, 1.4829504490, 1.2536759377, -0.1867930889, 1.7037777901, 0.9859280586, -0.4789967537, 1.4239950180, 1.7840988636, 0.3895571232, 
-1.7487950325, 1.2342903614, -0.7838076353, 1.8629739285, -1.3168941736, -0.0324635506, -0.2949908972, 1.9590134621, -1.0341954231, -0.7549301386, 
1.1497647762, -1.2857224941, -0.4209094048, -0.3308403492, 1.6697158813, 0.9995627403, -0.5458493233, 1.2469811440, 1.6470940113, 0.5918018818, 
1.9977014065, -1.8881311417, 0.0747525692, 1.2513773441, -0.0749242306, -0.2214696407, 0.2373056412, 1.4460790157, -0.7974747419, 0.0214042664, 
-0.1643638611, -0.5462696552, -0.7443052530, 1.0518286228, -0.6832958460, -0.0611994267, -0.9806349277, 1.0217132568, -0.1021859646, -0.0148303509, 
-1.7332168818, -0.9524213076, 0.6994471550, -0.1541262865, 0.7167382240, 0.3691632748, -1.1545634270, -1.8291109800, -0.3838555813, -1.5074694157, 
0.7626910210, -0.3861541748, -1.3956006765, -1.1625565290, -1.1347768307, 0.5294749737, 0.6159737110, 1.1025288105, -0.0244460106, 1.8184990883, 
-0.8760669231, 1.8111901283, -0.7277705669, 0.3796277046, 0.8630187511, 0.5889337063, -1.6815717220, 1.8823838234, -0.3893531561, 0.2162423134, 
-0.1324465275, -0.1225700378, 1.2638211250, -1.4329992533, 1.7233037949, -0.0194406509, 0.9361639023, -1.4312598705, 0.1514484882, -1.4476916790, 
-0.9387292862, -1.0858604908, 0.1661541462, -0.3343299627, -0.2484171391, 1.0313773155, -1.8048548698, -1.6324433088, 0.1339061260, 0.1706991196, 
-1.8139442205, 1.2578392029, -0.0181106329, -0.5417149067, -0.3625330925, -1.1550918818, -1.9527813196, -0.0441048145, -1.2727080584, -0.3421343565, 
-1.8278623819, 0.5948455334, 1.5352954865, 1.4359586239, 1.1618461609, 1.2585992813, -0.5834820271, 0.0980100632, 1.8273394108, 1.5679664612, 
0.6503183842, -1.1113898754, -1.5178941488, -1.1835273504, 0.5542802811, 0.2336888313, 1.8478500843, 0.7494254112, 0.6012454033, -0.0182439089, 
-1.0798755884, 0.7873010635, -0.7604048252, 0.9020137787, -1.7544138432, 0.8770620823, 1.7469217777, -1.7071950436, -1.1670426130, -1.5257861614, 
-0.0493295193, -0.9949051142, 1.0690591335, -0.5140339136, -1.5589464903, 0.2309055328, -1.2554347515, -0.1424285173, -1.6710844040, -1.4280953407, 
-0.5744620562, 0.9792342186, -0.5394850969, -0.0923562050, 1.7957067490, -1.9852049351, -1.8586674929, 1.6435568333, 0.7642204762, 0.7425777912, 
-0.3746871948, 1.6843447685, -0.4701210260, 0.8649079800, 0.5863585472, -0.2245348692, -0.2580298185, 0.3332803249, 0.0682702065, 0.5749275684, 
0.8074941635, -1.9810593128, 1.5800225735, -0.1234465837, -0.4950932264, -1.9789239168, -1.8925410509, 0.2494721413, -0.1213524342, -1.5636254549, 
0.8213768005, 1.3041853905, 1.4156086445, -1.7181082964, -0.7881706953, 1.2113153934, -1.7033132315, -0.6468381882, 0.8548722267, 1.0609071255, 
-1.9042603970, -1.5198149681, 0.7452521324, -0.3743814230, 1.3450932503, -0.6683893204, 1.4010837078, -0.9129366875, 1.6648910046, -0.5306462049, 
1.6619908810, 0.4723854065, -0.5117055178, 1.2420134544, -1.6510612965, 0.9932012558, 1.2630894184, -1.5436023474, -0.7573267221, -0.8582630157, 
-1.1072278023, -1.9359499216, -1.5540775061, -1.6916191578, -1.6540582180, -0.3422482014, 1.5196962357, -1.3573714495, 1.0109136105, 0.3745684624, 
1.7035357952, 1.1066532135, 0.8547534943, 0.4487879276, -1.2677283287, 0.1998467445, 1.7803986073, -1.8666446209, 1.2869100571, 1.4452896118, 
-0.3972907066, 0.9489009380, -0.0823251009, 1.0910036564, 0.1909143925, 0.2666137218, 0.0842049122, -0.5459961891, 0.7230112553, 1.3268783092, 
0.5957407951, 1.6157834530, 1.3909282684, 1.0416631699, 1.9241642952, 1.7368700504, -1.3005850315, 1.4438605309, -1.6205013990, 1.7103285789, 
-0.1815708876, -1.9169656038, 0.8169817924, -1.3268172741, 0.5318222046, 1.5492534637, 0.8730292320, 0.3122208118, 1.6826088428, 0.1599392891, 
-0.2424895763, -0.7146818638, -0.8911597729, 1.6751854420, -1.6236780882, 1.2997546196, -0.0582009554, 0.4605269432, -1.2462415695, -1.3351895809, 
-0.2125948668, 1.3494992256, -1.7194061279, -0.8216664791, 0.3911623955, -1.7952418327, -1.0847964287, 1.0905776024, 1.6486186981, -0.7052978277, 
0.8009061813, -0.5329521894, -0.6222634315, -0.3821122646, 0.1402304173, 1.9095590115, -0.8328588009, -0.9867401123, 0.2217798233, -1.1502499580, 
1.1731991768, 1.9792902470, 0.1350681782, -1.7179605961, 1.6544756889, 0.5113899708, 1.5817940235, -0.4037253857, -1.0280830860, -1.6644475460, 
0.2610850334, 0.7593221664, 1.6850516796, 0.5416789055, 1.9376556873, 0.0762140751, 0.7464370728, -1.1471407413, -0.8332084417, 0.3950557709, 
0.1475613117, 1.9676976204, 1.8621037006, 1.5252978802, -0.4144145250, 0.0023341179, 1.4348568916, 0.7527267933, 1.0155940056, -0.3433634043, 
1.6024768353, 0.1887931824, -0.3640731573, -0.2624551058, 0.4708325863, -0.7095975876, -1.7510650158, 0.0526266098, 0.8866770267, -0.7791479826, 
0.3881790638, -0.8522380590, 1.9801740646, 0.0732307434, 1.6894407272, 1.9178297520, -1.8505551815, 0.4358778000, -1.2293111086, -0.6837636232, 
-1.1690665483, 0.9182503223, -0.7160658836, -1.3069629669, 0.4435482025, 0.8695194721, 0.6953711510, -0.1215949059, -0.3777537346, -0.2890349627, 
1.5350418091, -0.7752770185, 1.8997581005, -0.8290314674, 0.9622678757, 0.3705906868, 0.4613709450, 1.2112028599, -1.5767827034, -0.6519521475, 
-1.5679450035, 0.8113963604, 0.4958097935, -1.5877709389, -1.1153728962, 0.1852505207, -1.6699411869, -0.9659280777, -1.3788716793, -0.8992522955, 
0.3503084183, -0.5479382277, -1.9810020924, 1.6342425346, 0.1450989246, 0.4625461102, 0.5037620068, -1.1595300436, -1.6590486765, -1.8739917278, 
0.5514349937, 1.8759930134, -0.6492687464, 0.4511930943, -0.9530384541, -1.6870007515, -1.1782162189, 1.5083324909, 1.5242023468, -0.7549989223, 
-1.1436196566, 1.9562571049, -1.9436025620, 1.3521902561, -1.6315137148, -1.0589754581, -0.4625592232, -1.3014550209, -0.0249035358, 0.1585690975, 
-0.2007073164, -1.6745952368, 1.6106309891, -0.1817092896, 1.9596471786, -0.2442703247, -1.7191630602, 0.4634091854, 0.5961997509, -1.3782117367, 
0.5894174576, -0.8523653746, -1.5022187233, 1.9401488304, 1.5988278389, -0.4552571774, -1.7468519211, -1.5793884993, -0.9469246864, 1.7773501873, 
-0.3343874216, -0.0905443430, 1.7336075306, -0.2779899836, -0.7383542061, -1.8979063034, 0.6630346775, 0.7990865707, -1.1993613243, -1.3618689775, 
-1.0423443317, 0.5999314785, -1.0364642143, -1.4317133427, -1.5817778111, -1.0768171549, 0.3240163326, -1.3009408712, 1.3865921497, -1.0797840357, 
-0.6791526079, -0.0239905119, 0.0678505898, -0.1813713312, -0.0838418007, -0.3333216906, 1.3633716106, 0.1693062782, 0.0872898102, -1.5835531950, 
-0.0533434153, 1.7529025078, 0.3259024620, -0.3197360039, -0.5250875950, 1.5875482559, -0.2176423073, -1.8620529175, 0.3866348267, 0.5829963684, 
-1.2239220142, 1.3442904949, -0.8170720339, -0.2603862286, 1.9125771523, -0.3988498449, 0.6627964973, 0.2365934849, 0.3002092838, 0.0493886471, 
1.1568093300, 1.6210565567, -1.9746018648, -0.7753399611, -0.5603147745, -0.0584436655, 0.8913383484, -1.1969432831, -1.8891373873, -1.0213719606, 
-0.7804964781, 0.0575191975, -1.2684695721, 1.5454061031, 1.7377831936, 0.2064428329, 1.1329543591, -0.4798591137, 0.3443899155, -0.4804108143, 
-1.8968627453, 1.1204679012, -1.1361202002, -0.7139347792, -1.1399183273, -1.2235430479, 0.8872153759, 1.5228781700, 1.0130505562, -0.8125754595, 
-0.4277330637, 0.1698598862, -1.1915189028, -0.4023349285, 1.3945198059, 0.2481663227, 1.5392215252, 0.2858581543, 1.0512230396, 1.6500840187, 
1.2644860744, -1.7292734385, -0.2923966646, 1.9960167408, 1.8161325455, -0.5546134710, 0.2024595737, 0.9490869045, 0.9655272961, -1.4531505108, 
-1.5313239098, 1.0686647892, 1.6673173904, -0.6674441099, -1.6452701092, -1.4726009369, 0.1090128422, 1.2419452667, -1.9497226477, -0.8779366016, 
-1.5706301928, -0.3774558306, 1.2919232845, -0.7621490955, 1.2202093601, 0.6864430904, 1.4860172272, 0.7594306469, -1.0276987553, 0.5372402668, 
0.4095149040, -1.7632125616, 0.8079667091, -1.8828818798, -1.7671959400, 0.6240994930, -0.4374953508, 0.4352636337, -0.4268136024, -1.4719679356, 
0.9821131229, 0.0418624878, 1.5966966152, 0.6494302750, 1.3744184971, 1.9514265060, 1.1768293381, -0.5165685415, 1.1933717728, 1.2271068096, 
0.6054947376, 1.6227416992, -1.1503491402, -0.1025820971, -1.1394073963, -1.9301397800, -1.4161388874, -1.6533901691, 0.8292908669, -0.4438377619, 
0.8838500977, -0.7611943483, -0.2070503235, -0.3081831932, -0.6440762281, 0.0257537365, -1.6840837002, 0.9184284210, -1.5389827490, -0.1108973026, 
1.4464604855, 1.4431302547, 1.9309651852, 1.0431571007, 0.0925607681, 1.3053836823, 0.9945838451, -0.7306098938, -1.2111847401, 0.1879556179, 
-1.5035032034, 1.3943099976, -0.1893026829, -0.6538523436, -0.7082720995, 0.6712899208, -0.5839921236, -0.1244111061, 1.0178997517, -1.7547011375, 
1.4317512512, -0.0982503891, -0.5158954859, -0.7752991915, 1.5935664177, 0.8400282860, 1.2504544258, 1.9094827175, -0.2415431738, 1.7114717960, 
-0.2014145851, -0.7950828075, 1.1546020508, -0.2704492807, -1.7519255877, -0.7528371811, -0.9650654793, 1.2426581383, 0.5165529251, -0.1762503386, 
-0.5693862438, 1.0130496025, -0.7819404602, 1.2413110733, -1.6408026218, 0.5097875595, -0.0873990059, -0.2247947454, -1.6146235466, -1.0694993734, 
0.0205039978, 1.8171274662, 0.8322503567, 1.5046086311, -0.9581716061, 0.4258167744, 0.3446369171, -1.7077170610, 0.3352994919, -1.8969062567, 
-1.9962452650, -1.8661149740, -0.6919890642, 1.1583569050, -0.1365642548, -0.4439146519, -1.5944803953, 0.8983702660, -1.2012565136, 0.9220724106, 
-1.2778801918, 0.2293572426, -0.0648778677, -0.0598206520, -0.5293315649, 0.2943193913, -1.5500332117, 1.3832693100, -1.9304752350, -1.1646568775, 
-1.6862299442, 0.0900287628, -1.3475291729, 1.1460204124, -0.4053626060, -0.3057008982, -0.4281628132, 1.9392743111, -0.0134179592, 1.9071366787, 
-1.9576319456, -0.0096632242, -1.9589782953, -0.6496210098, -0.8513063192, -0.0955426693, 0.9064643383, -0.4457867146, -1.1971724033, 1.7052078247, 
-1.5237143040, -0.4750525951, -0.0654349327, 0.4114079475, 1.4651267529, 1.4052333832, -1.2942726612, 1.9150936604, 0.7885026932, -1.2247478962, 
-1.2495632172, 1.1022727489, 0.8652811050, -0.5970925093, 0.2482931614, -1.5400815010, 1.0972065926, 1.8201303482, -1.6008071899, -0.9162112474, 
1.7272670269, -1.5584392548, 1.0741255283, 1.7682886124, -0.2080602646, -1.7771806717, -0.3272539377, -1.3015959263, -0.2229673862, 0.4755735397, 
-1.5963882208, 0.2533183098, -1.9994790554, 0.3381767273, -1.3352737427, 1.4656476974, -0.2565897703, -0.6295464039, 1.3807413578, -1.4680869579, 
0.1457056999, -1.8688219786, 1.6341857910, -0.9890131950, -0.4659143686, -0.1175210476, -0.5290948153, -1.3687076569, -0.2973906994, -0.1299020052, 
-0.2849189043, -0.5701237917, 0.3116588593, -1.2107932568, -0.8018350601, -1.8964014053, -0.9879740477, 0.8709108829, -1.1979973316, 0.7890584469, 
-0.6535154581, -0.7943855524, -0.9576231241, -0.6529945135, 1.5437912941, -0.2928969860, -1.1873466969, -0.7127984762, 1.0775566101, -1.8066054583, 
-0.1808854342, -0.7767375708, -1.6754274368, -0.5466996431, 0.2342491150, -0.1413419247, 1.3357794285, 1.7051544189, 0.4899504185, -0.9616113901, 
-0.4247475863, -1.7949684858, 0.4682648182, 1.8869111538, -1.0057618618, 1.6664297581, 1.9905097485, 0.0062642097, 0.5373406410, -1.2074874640, 
-1.2046773434, 1.8838253021, -0.0018730164, -0.1623004675, -0.7691692114, -0.4580817223, 1.5448026657, 0.0434839725, 0.8291199207, 0.6223592758, 
0.2368783951, -1.3517656326, 1.8456218243, 0.5614509583, 0.1015348434, 0.0798709393, -1.5798908472, -0.5626857281, -0.2149745226, 0.9100596905, 
0.4757030010, 1.3602778912, 1.1150910854, -1.0560321808, 1.2471890450, -1.8906706572, -1.3896024227, 1.2376990318, 0.1155934334, 1.1477382183, 
-1.9697884321, 0.9109160900, 1.0315635204, 0.0283384323, -1.2513842583, -1.7376056910, 1.5702569485, -1.7065815926, 0.3058784008, 0.3993766308, 
0.9157776833, -1.4572432041, 1.0476112366, 0.7613995075, 1.1042077541, -0.8508539200, -1.1587295532, 1.5243170261, 0.5864603519, 0.6262958050, 
0.4343764782, -0.9378368855, -0.0134261847, -0.4505323172, 0.0061309338, -0.7662370205, -0.3412030935, 0.6165285110, -1.5285379887, 1.7743904591, 
-0.2357332706, -1.4983265400, 0.6853065491, -1.2041697502, 0.5300121307, 1.4339222908, -0.9417753220, 0.1002688408, 1.7273406982, 1.3641028404, 
-1.5003544092, 0.6431183815, 1.9068596363, 1.5472567081, -0.5954821110, 1.0110673904, -1.3035972118, 0.2457883358, 0.5353844166, 1.2828631401, 
-1.1279156208, -1.0302389860, -1.6549737453, 0.8586580753, 0.5192286968, 0.3511571884, -1.9075789452, -1.8219745159, -1.0323143005, -1.4361169338, 
1.9524159431, 0.7319524288, -0.9344434738, 0.6377224922, 1.5277826786, 1.5955686569, 0.0716447830, -1.4139926434, -0.3041625023, -0.2010143995, 
1.9501104355, 0.1954829693, -1.5578960180, 1.8569700718, -0.2572602034, -0.1533781290, 0.8680374622, 0.4391427040, -1.9075896740, -0.5965780020, 
-0.2779943943, -1.0355054140, 0.3731830120, 0.0670318604, 1.8231527805, -1.1075884104, -1.5818109512, 1.9155738354, -0.9295628071, -0.6141252518, 
-1.5205432177, -0.9771468639, -1.8821728230, -0.4549866915, 1.6605756283, 1.6456100941, -0.8594180346, -0.2677795887, -1.7683825493, 0.8364193439, 
1.5312061310, -1.8182722330, -0.9680974483, 1.9733099937, -1.9613022804, 0.7746422291, -0.1800680161, 0.9067354202, -0.7862150669, -0.0876576900, 
-1.6898427010, 0.9357905388, 0.8768367767, 0.6833403111, -0.9971774817, 0.6999895573, 1.5757517815, -0.5789884329, 0.6155633926, -1.3538110256, 
0.8068861961, 1.0950200558, -0.3309578896, 0.9247133732, -1.3599665165, -0.6703822613, 0.5703234673, -0.2193845510, 1.0618381500, 0.8019409180, 
-1.3829650879, 0.5930442810, 0.9836685658, -0.3510625362, 0.5663542747, 1.0223662853, -1.5764201880, -1.6137137413, -0.0708982944, -0.3626352549, 
0.2986285686, 0.2392590046, -1.4268445969, -0.8245346546, -1.0774006844, -0.4240221977, 1.8754549026, -1.5016489029, 0.9969894886, 0.4910182953, 
-0.8554598093, -0.1961243153, -0.4139615297, 0.8135824203, -1.2714109421, 0.2260720730, -1.8567999601, 1.2989125252, -1.9933124781, 1.2050380707, 
0.1008534431, -1.3762775660, -0.2019176483, -0.9154779911, 0.2726597786, -1.6355633736, -1.8931115866, 0.6962397099, -1.2492771149, 0.0359899998, 
-1.6663955450, 1.0493512154, -1.7247508764, -1.0932402611, -1.7751833200, -0.8021515608, 0.4827375412, -1.8997284174, -0.3038004637, -0.5202729702, 
0.5912899971, 0.8407397270, 1.2836027145, -1.8226715326, -0.3456779718, -1.9878082275, 0.4034004211, -0.2024779320, 1.3111042976, 0.4100878239, 
-0.9974397421, -0.5880421400, 1.0338103771, 0.8006424904, 0.4964797497, -0.6935297251, 1.1650791168, 0.6033682823, -1.9972900152, 1.9158020020, 
-1.3606417179, -1.6636855602, 0.9651532173, -1.0853924751, -0.7569258213, 1.1899700165, 0.1124558449, 1.7258117199, 1.2902414799, 1.8086555004, 
-0.7944612503, -0.1184685230, 0.6493952274, -1.5108585358, 0.0588600636, -1.6962828636, -1.4986667633, -1.5377396345, 0.1012392044, 1.8124377728, 
0.8723483086, 1.1037995815, -0.7756044865, -0.0938413143, -0.0955579281, 1.7208752632, 1.2126290798, -0.9304786921, 0.3242435455, 1.2153389454, 
-1.0146766901, 0.9636018276, 1.5516533852, 1.9504766464, 1.8782093525, -1.2052725554, 1.1404466629, -0.0093348026, -1.4794607162, 0.4306881428, 
-0.2006794214, -0.2739219666, -1.6877802610, -1.5512843132, 0.2152194977, 0.3710796833, -1.2475671768, 0.7165527344, 0.8333399296, 0.8536720276, 
0.5289905071, -0.2943116426, -0.0425283909, 1.7533860207, 1.6118471622, 1.8619136810, 1.4742612839, 0.8244760036, -1.0685650110, -0.2014952898, 
0.0398149490, -0.0832417011, -1.2378933430, -0.4085316658, -0.1327651739, -1.3596839905, 0.3861956596, -0.9923186302, 0.6309812069, 0.9067349434, 
1.4383695126, -1.5696983337, -1.3671870232, 1.7505893707, -1.1209825277, 0.8480324745, 0.1216690540, -0.3685497046, -0.4354146719, -1.0449910164, 
-1.5148775578, -1.9064241648, 0.6606974602, 0.4425940514, 1.8469617367, 0.2725443840, 0.3045077324, 1.3212230206, -0.9029794931, 1.2359426022, 
-0.8802723885, 1.1368355751, -0.8472990990, -0.1181657314, -1.2716962099, 1.0199358463, 0.5221502781, 1.1144995689, -1.9723827839, -0.8468686342, 
0.0212345123, 1.4659867287, -0.4165668488, 0.6540474892, 1.2165760994, 0.4624505043, -0.4979200363, -0.6617549658, -1.9060990810, 1.0666654110, 
0.2932538986, -1.4209766388, 1.1602411270, -1.0460486412, 1.0216174126, 1.0072028637, 1.2264957428, -0.6738748550, 0.3284256458, -1.6764836311, 
-1.4379322529, 1.4481534958, 1.4603519440, -0.2852312326, -0.6700123549, -1.8113443851, -1.2652955055, 1.8521380424, 1.3031551838, -1.2376782894, 
-0.9947305918, -0.6756104231, -1.7716915607, 0.5887024403, 1.9784371853, 1.4448845387, -0.9488468170, -0.5194828510, -1.2168704271, -0.8549458981, 
-1.4528176785, 1.0763835907, -0.2759225368, 1.7074234486, -1.9696650505, -1.2543051243, 0.7146263123, 1.2568306923, 0.0718200207, -0.9569479227, 
1.5803470612, 0.6338877678, -1.5087945461, 1.0406990051, -1.6513434649, -0.1788069010, 1.2293546200, -0.9166389704, -0.3266689777, 0.5325095654, 
-0.1543172598, 0.6786003113, 1.8568992615, 0.0739912987, -0.7326970100, 1.8353364468, -0.4811241627, 0.3184561729, -0.6841465235, 0.3020052910, 
1.4635100365, -0.1369640827, -0.6216109991, -0.8124123812, -0.4295406342, -0.5912760496, -0.0667175055, -1.7149143219, -1.3344453573, -1.9948976040, 
-0.6718622446, -1.7540982962, 0.6389901638, -0.1806567907, 1.2866005898, 0.9876468182, 1.6405363083, 0.5159552097, -1.9289922714, -0.6861326694, 
-0.9515352249, -0.0833095312, 1.9924678802, -1.0946359634, 1.9906816483, -0.7402292490, -1.2592995167, -0.4904425144, 1.5782268047, 0.0565540791, 
1.8115627766, 1.0417368412, 1.9195897579, -0.8100482225, -1.7706754208, -0.5099507570, 0.5986757278, 0.1626069546, -0.2248650789, 1.2642304897, 
0.1677095890, 1.1032726765, 1.5101320744, -1.1933002472, -1.0773839951, 0.7967326641, 1.7943463326, -1.4368476868, -0.6873121262, 1.8653540611, 
-0.1229803562, 0.3611526489, -0.2179553509, -0.1305125952, 1.2665169239, -0.2272737026, 1.1292581558, -1.9927827120, 1.2822837830, 0.7074849606, 
0.0637712479, 1.0938465595, -0.2507780790, -0.0166388750, -1.7162015438, -0.0214534998, 1.4734103680, 0.8824741840, -1.8588464260, -0.7514545918, 
0.1467044353, 0.3088629246, -1.6481819153, -0.3431633711, 1.1155626774, -0.7255659103, -1.5464305878, 0.9099092484, -0.1624135971, -0.2337427139, 
0.7752633095, 1.7146060467, -1.8725899458, -1.4426920414, -0.4159065485, 1.3939268589, 0.3300342560, -1.2866482735, 1.4011440277, -0.3876819611, 
1.4208366871, -0.5350846052, -1.2938354015, -0.8299413919, 1.4482765198, -1.0100369453, 1.1486051083, 0.9216868877, 1.8724372387, 1.2897586823, 
-1.8297677040, 0.0191416740, -0.4013783932, -1.4779495001, 1.6759784222, -1.2858157158, -0.2035154104, -1.8704521656, 1.6240935326, 1.6340708733, 
-0.1041948795, 0.3993568420, 1.3486769199, 0.0232150555, 0.9566648006, -1.0672295094, -0.5828579664, -0.7133009434, -0.3538777828, -1.1817138195, 
0.8990170956, -0.9330410957, 0.2832014561, 1.6051816940, 0.2370173931, -0.2685219049, -1.4048552513, -0.6143773794, -1.3468348980, -1.5324180126, 
-1.3246186972, -1.1766026020, 0.4867236614, 0.2740030289, -0.6545521021, 0.1627020836, 0.9881873131, 1.1419324875, 0.2922499180, 0.6122808456, 
0.7760033607, -1.8119448423, -0.9883624315, 0.1246805191, 0.2112703323, 1.9683022499, 1.0574510098, 1.6284122467, -0.7449986935, -1.2964268923, 
-1.5533015728, -1.8459815979, -0.2294679880, 0.7299001217, 1.7592000961, -1.9924504757, -1.5386219025, -1.6456552744, -0.6068278551, -0.8854566813, 
-1.1780734062, 0.0685534477, -0.0620592833, 1.3086504936, -1.6574437618, 1.2833886147, -0.5286474228, 1.3307435513, 0.4253211021, 1.7636027336, 
-0.0569757223, -0.7986754179, 1.9516577721, 0.9546618462, 1.3260049820, 0.1629281044, 0.9229640961, 0.3834559917, -0.2086595297, -1.8220345974, 
1.0870289803, 0.2380390167, -1.6680161953, -1.1424390078, -1.0320611000, -1.9088162184, -1.1348896027, -0.5706828833, -1.5544714928, 0.2582826614, 
0.5438604355, -0.7325447798, -1.6731640100, -1.5181989670, -1.4238944054, -1.3306076527, 1.7651896477, 0.0474581718, -1.9998641014, 0.1905109882, 
-0.1889392138, -0.0568398237, 1.3918354511, -0.2372813225, -1.1021779776, 0.7178404331, 1.9256467819, 1.8207862377, -0.8987035751, -0.2830127478, 
1.9987516403, -1.8116744757, 1.9550261497, -1.6692645550, -0.9541134834, -1.0770349503, -1.5780807734, -0.0890029669, 0.3522822857, -1.1325522661, 
-1.8307204247, -1.1038575172, 0.1349029541, -1.5038844347, -0.6220563650, 0.7110085487, -0.8344920874, -0.8568667173, -1.2415332794, -0.8343563080, 
1.3336441517, 0.5695276260, 1.1088039875, 0.7254796028, -1.6677538157, -1.9933741093, -0.5566798449, -1.7421070337, 1.8274121284, 0.5446166992, 
-0.0251197815, 1.8261637688, 0.7329421043, -0.0700936317, -1.8431007862, 1.7788286209, 0.8528714180, -1.4211815596, -0.3101743460, -0.7948464155, 
-0.5537338257, -0.1408947706, 0.1012961864, 1.5811691284, 0.3552207947, 1.4792397022, 0.2921776772, 1.5207285881, -1.3776268959, 1.0506443977, 
-1.3136276007, 1.9560172558, -0.3798280954, 1.7951762676, 0.6814968586, -0.0475819111, 1.8018021584, -1.8751828671, 0.2103109360, 1.6292142868, 
0.6694338322, -1.8148088455, 1.4553780556, -0.5976240635, 0.1150975227, 1.6122772694, -0.8187954426, -1.0320310593, -1.8089041710, 0.8710303307, 
0.1731226444, -0.3626379967, -1.2698645592, -1.7255812883, -0.7814688683, 1.0853562355, 1.7536582947, 1.5107088089, 0.6060850620, -1.6239686012, 
0.5613532066, 1.2924573421, -1.6679513454, -1.8184747696, 1.0876336098, 1.0135455132, 0.1339433193, 0.8894357681, 1.1383626461, -1.6557457447, 
0.5186502934, -0.1922035217, -1.4705544710, -0.0259716511, 1.2101724148, 0.6445429325, -0.4136942625, -1.6086230278, 1.6125121117, -0.2225984335, 
1.2624073029, -0.2143653631, 1.4147636890, 1.9925427437, 0.0600533485, -1.3667051792, 1.0778989792, -0.1862883568, -1.8559963703, -0.3160160780, 
0.1897430420, 0.7053568363, -1.0235586166, 0.5217916965, 0.8868820667, -1.9359250069, -0.4646626711, -0.9791747332, 0.9535107613, -1.3262999058, 
-0.6349203587, -0.5278389454, 0.4814965725, -0.1054748297, 1.4461894035, -0.3083310127, -1.4609317780, -0.9675047398, 0.0830459595, -1.8484197855, 
0.8098969460, -0.6545468569, -0.0627852678, 0.2246603966, -0.6620041132, 1.9972679615, 0.8579552174, -1.5841051340, -0.1890202761, 1.0019588470, 
0.0998787880, -1.9992771149, -0.2926841974, 1.0763201714, 0.5225145817, -1.4058022499, 1.1403951645, -1.9421479702, -0.3849768639, 0.0939059258, 
-1.2684478760, 0.9801027775, 1.5660669804, 1.2130486965, -1.1253721714, 1.0122566223, -1.0952823162, -0.5863039494, -1.9552482367, 0.9877636433, 
-0.4347237349, 0.8546485901, -1.6667833328, 1.5024909973, -0.9206907749, -0.3287874460, 1.4997589588, 1.9372644424, 0.0871074200, -0.6892611980, 
0.9392232895, -1.8130136728, -0.6885384321, -1.3534609079, 1.2633063793, 1.8339762688, -0.7592631578, 0.4037015438, 1.8918282986, 0.8557598591, 
-1.5023925304, -1.3766195774, -0.1641373634, -1.9363255501, 1.8364291191, 0.7104904652, 1.0759310722, -1.2588534355, -1.8758134842, 1.1206827164, 
1.7289102077, -0.3105372190, -0.0246684551, -1.9378731251, -0.8080462217, 1.0546407700, -0.2666605711, -1.3082871437, 0.9919052124, 1.8204469681, 
0.0024516582, -0.0688716173, -1.9925668240, 1.3139131069, 0.5776674747, 1.2707395554, 1.1478893757, 1.8184044361, -0.3255589008, 1.0397176743, 
0.6741642952, 0.1720485687, 1.6630980968, -1.4899729490, 0.2357230186, 1.4995272160, 1.2205176353, -0.6883459091, -1.7593262196, 1.3447041512, 
-1.5676630735, 1.9695839882, -0.9658330679, 0.4076683521, -1.9682891369, 0.2261207104, -0.5376909971, -0.2349497080, 0.9178335667, -1.5457859039, 
-0.4145027399, -1.0797147751, 0.3853425980, -0.4070695639, -1.7658015490, -1.0369899273, -1.1363298893, 1.3820879459, -1.2185854912, 0.5381112099, 
0.4218056202, 1.4555788040, -1.2898402214, 0.0849037170, 1.9656059742, 0.9458827972, -0.4155690670, 1.1861233711, -1.7424631119, -0.1748952866, 
0.5308275223, -1.3101261854, -0.2053112984, 1.5649945736, 1.0975422859, -0.1736004353, -0.2088847160, -1.4401488304, 1.5914499760, -1.2910511494, 
-0.9859346151, -0.8230528831, -0.3707659245, 1.3994078636, 0.7698774338, -0.1365674734, -1.6375819445, 1.6335475445, -0.7544795275, -0.8561674356, 
0.1716587543, 1.6673262119, -1.4005885124, 0.8818185329, -0.2477700710, -1.4349827766, -0.1722986698, 1.3366608620, 1.7511408329, 0.0852382183, 
-0.8382344246, 0.2819683552, 0.7751121521, 0.9564542770, -0.1530370712, -0.1273456812, -1.2171461582, 1.6380782127, 0.4325056076, -1.6256963015, 
-1.6529729366, 1.4465708733, -0.4487491846, -0.0237387419, 0.8459789753, -1.6788717508, 1.8396937847, 1.2083969116, 1.9546759129, -0.9147857428, 
-1.6477704048, 0.1263344288, -1.2474596500, -1.0483589172, -0.9918470383, 0.5047702789, -0.4833416939, 0.8358542919, -0.1585688591, -0.7322009802, 
-1.0789074898, 1.0031967163, 1.5497674942, 1.6962046623, -0.0403490067, -0.6032696962, -0.4311411381, 0.7425048351, -0.9651914835, -1.9986356497, 
1.1168086529, -0.6181644201, 1.4479353428, -1.3319406509, 1.3580968380, 0.2939140797, -1.0108122826, 1.1977906227, -0.4976888895, -1.0561364889, 
-1.7169951200, -0.1454592943, 1.0701980591, -0.9644547701, 0.8061816692, -1.9216489792, 1.5403156281, -1.6771600246, 0.9142053127, -0.6182533503, 
-0.4093610048, 1.8352978230, -1.6150566339, -0.8595935106, 1.5315022469, 0.3445944786, 0.5371367931, -0.8996387720, -0.9129006863, 1.5719451904, 
-0.8982744217, -1.7960920334, -1.0462191105, -1.4503391981, -1.1280326843, -1.6881222725, 0.8435750008, -0.1388449669, 1.5096683502, -1.6541140079, 
0.8050186634, 1.7926733494, 0.2004268169, -0.1247833967, -1.1717815399, -0.9933916330, -0.0464324951, -1.6314659119, -0.6705516577, -1.1322271824, 
-0.2497192621, 0.9200873375, -1.2969294786, 0.1352241039, -1.9395061731, -1.7654271126, -1.5201814175, 0.5976305008, -0.6650660038, -0.4330821037, 
0.1695756912, 0.4366595745, -0.2291741371, 1.1233565807, 0.9863202572, 0.6427931786, 1.4352343082, -0.1701047421, -1.4960517883, 0.9449026585, 
0.1757812500, 1.3089668751, 0.7375760078, -1.6237920523, -0.8158166409, 1.5657944679, -0.6171836853, 1.1377508640, 1.9343285561, 0.7122647762, 
-1.9944763184, -0.3153907061, -0.3676478863, -1.2914057970, 1.8198335171, -0.3071540594, -1.0568330288, -1.7003480196, -1.7095235586, 0.2781009674, 
-0.1334301233, 0.4600522518, -1.2852394581, 1.6373956203, -0.4165910482, 1.7010807991, 0.2801887989, -0.9813567400, -0.4690239429, 0.7841370106, 
1.9635460377, 1.7067573071, 0.0931038857, 0.7011220455, -1.9170347452, 1.2772872448, 0.2669165134, -0.5342184305, 0.4150381088, 0.2012453079, 
-1.8219536543, 0.4205617905, 1.8858544827, -0.1896016598, 1.1291561127, 1.7056879997, 1.5032444000, -1.9276769161, -1.9946600199, 1.7937207222, 
0.3504240513, -0.1280901432, 0.2537729740, 1.0651845932, -0.4906945229, 1.8371820450, 0.7662656307, 1.7894942760, -1.1441746950, -1.7027583122, 
0.5736315250, -1.1806285381, -1.9960010052, -1.3332645893, 1.5204935074, -1.9130356312, 1.9440226555, -0.2125898600, -0.4472540617, 0.3590607643, 
1.9886553288, -0.2692077160, -1.2203774452, 1.8745098114, 1.5411906242, 1.9087786674, 1.5801978111, 1.0444350243, 1.9811017513, 1.5855379105, 
0.8381557465, 0.3315258026, -0.5425523520, -0.9080711603, -0.6032894850, 0.9667532444, -1.0708891153, -1.8370238543, 0.7562475204, -0.2150638103, 
-1.5397821665, -0.6701209545, 0.6043076515, -1.5357831717, -0.0033855438, 0.1248011589, -1.4488188028, -0.0593628883, 1.9122111797, 0.1039271355, 
-1.7003021240, 1.9008665085, 1.8347194195, -0.9206794500, 1.7753763199, 1.3759100437, -1.0119009018, 1.3555741310, 0.4203450680, -1.0307991505, 
0.9411120415, -0.7414990664, 1.3007266521, -1.6014401913, 0.3504297733, -1.3025627136, 1.3653130531, 1.2795407772, -1.1395866871, 0.1215605736, 
-0.9355230331, -0.6793688536, 1.4514396191, 1.6687846184, -0.2151519060, -0.5519459248, -0.2064143419, 0.3360292912, 1.3886911869, -0.2942032814, 
-1.5600435734, 1.6883890629, -0.3933367729, -1.7253241539, -1.2322905064, -0.6179604530, 1.6505861282, -0.2441912889, -1.2623862028, 0.0709311962, 
0.7250096798, 1.6787259579, 1.3294320107, 0.0257363319, -1.9227143526, -0.3201379776, 0.7231736183, 1.4425985813, -1.0405973196, 1.5835871696, 
-0.4358407259, 0.0238797665, -1.0957818031, -0.9844011068, -0.3073357344, 0.6890664101, 0.4636530876, 1.4862499237, -0.9749044180, -0.1476558447, 
-0.8079533577, -0.5349479914, -0.4592667818, 0.7987098694, -0.2602720261, 0.3084428310, -1.8192505836, -0.6096860170, -1.9357484579, -1.0816367865, 
1.4612450600, 0.7892611027, -1.4029109478, 0.7906773090, -1.1850024462, -1.3256253004, -1.5294607878, 1.5381712914, -1.8830265999, -0.5700579882, 
1.1217582226, -0.3188674450, 1.4538216591, -1.9740234613, 0.6967315674, -0.8535141945, 0.7150428295, -0.8396154642, -1.3672642708, 1.7401385307, 
1.0127286911, -0.1752177477, -0.7948095798, -1.4465380907, -1.3765077591, 0.9449183941, 0.8619046211, -1.1957583427, -1.6647676229, 0.9261562824, 
-0.2773951292, 1.7964775562, -0.2845826149, 0.3196938038, 0.5871548653, 0.5304148197, 0.9940686226, 1.0576939583, 0.0685861111, 1.1110420227, 
-1.5123640299, -0.8096556664, -1.2078254223, 1.9414575100, -0.7836791277, 1.4889061451, -0.9120565653, 1.9313635826, -1.3507094383, -0.2793208361, 
1.6715021133, 1.6620192528, 1.5454614162, -1.1233074665, -1.7845188379, -1.8310463428, 1.8216109276, 1.0773859024, -1.0268048048, -1.8431566954, 
0.0035419464, 0.6958000660, 1.9533207417, 1.7189593315, -0.9845061302, 0.5404756069, 0.2493743896, -1.9904375076, -0.4018305540, -1.6820396185, 
1.1206045151, 0.0858054161, -0.4916952848, 1.9127790928, 0.0272629261, 0.7246255875, 1.4016852379, 1.1152064800, 0.6559891701, -1.9490243196, 
-1.1641144753, 0.3274912834, 1.7129950523, -1.6186529398, 1.2041838169, 1.9284760952, -1.4496994019, 1.0257947445, 1.0058619976, -0.4765042067, 
1.1826381683, -0.9905959368, -1.7807041407, 1.1359586716, -1.2716364861, -0.7652102709, -0.3235657215, 0.9777376652, -0.7556477785, 1.2746038437, 
1.2956981659, -1.6350431442, -0.6395907402, -1.1959972382, -1.7222640514, 1.3876721859, 1.5286283493, 1.6794209480, 0.5028786659, 0.1846175194, 
1.7303967476, 1.3387644291, -1.4878910780, 1.4433917999, 1.7201113701, 1.7162928581, 1.3718678951, -1.7295880318, 0.7420876026, 0.3777298927, 
-0.2060921192, -0.0752743483, 1.3871340752, 0.0132036209, -0.9393155575, -1.8845025301, 1.2479934692, 0.7371187210, 1.0932352543, -1.5076543093, 
0.0117225647, 0.3889334202, -1.1426975727, 1.3721318245, 1.1929361820, -0.8649616241, 0.7598040104, 0.7215645313, -1.1855406761, -0.7373172045, 
-1.0938178301, -1.4551438093, -1.3985528946, -0.5817089081, 1.9882478714, -1.6784415245, -0.8654160500, 1.3601157665, -1.4080294371, 1.8766715527, 
-0.2621542215, 0.3858783245, -0.1986027956, -0.8750202656, -1.6009179354, 0.8620817661, -0.7595227957, 1.6470754147, -0.4007996321, -1.6662875414, 
-1.8605787754, 1.6109228134, 0.7226457596, -1.0032763481, 0.9830546379, -0.0844179392, 0.1317620277, -0.2571413517, -1.3628534079, 0.9462213516, 
1.0055413246, -0.4566712379, 1.4910776615, 1.6069884300, 0.9616198540, 1.4793255329, 1.9285469055, -1.9037961960, 0.8394412994, -1.4794824123, 
1.9728753567, -1.4227130413, 0.9063959122, -0.2257275581, -0.2977333069, 1.3054780960, -1.3636459112, 0.9427440166, 0.9525535107, 0.2355544567, 
1.2764563560, 1.0919747353, -0.1535226107, -0.0008978844, -1.9113016129, -1.1704678535, 1.9146840572, 0.2204604149, 0.5723907948, -1.4481692314, 
-0.8333182335, -0.4220678806, 0.0951595306, -1.3422406912, -0.8150793314, -0.9432207346, -1.8629151583, -0.8865323067, -0.8470169306, 0.9765260220, 
-0.3660147190, -0.8741416931, 1.5538129807, -1.4596188068, 0.9001307487, -0.7439202070, 1.8458592892, 1.5364849567, -1.8011763096, 0.7984127998, 
-0.2279605865, 1.4752800465, -0.1096123457, 1.6185166836, -0.5256177187, -0.0209139585, -1.5519511700, -0.6109336615, -1.8004535437, 1.0204396248, 
-0.0591028929, -0.6337717772, -1.4016282558, -1.9639434814, 0.0239875317, -0.2167074680, -0.9071640968, 0.1610722542, 0.8967602253, 0.2458188534, 
-0.8624016047, -1.4692544937, 1.3716771603, -1.3085885048, -0.9288733006, 0.2718079090, -0.0525085926, -1.0830140114, -0.1917072535, 0.1463150978, 
1.7153987885, 1.5803322792, -0.3784048557, -0.3942134380, 1.1988489628, 1.0959773064, 1.5848724842, 1.6468977928, -1.5149562359, 1.7844190598, 
0.6673374176, 0.4259409904, -0.8493528366, 1.2657091618, 0.4619975090, 1.1746346951, -0.9509983063, 1.5548334122, -0.6642929316, 1.9457619190, 
-0.1993478537, 0.4733054638, -1.5234925747, -0.8276706934, 1.1647169590, -0.4523658752, 1.4441373348, -0.8877916336, 0.4646201134, -0.7475699186, 
1.2585234642, 0.1800191402, -1.1672377586, -1.1198813915, 1.7858054638, -1.9683887959, 1.9760959148, 1.3706781864, 1.6785089970, -1.5388602018, 
1.1550970078, 0.3458464146, 0.8870806694, -1.6942558289, -0.3884444237, -0.6509218216, 1.4803788662, 0.6605572701, -1.0960885286, -1.1839140654, 
0.6063191891, 0.7045636177, 1.2893912792, 1.0828266144, 1.8768930435, 0.4541084766, -1.3695393801, 1.3210303783, 1.5663168430, 1.0950808525, 
-1.4265396595, 0.8248403072, -0.7249001265, -0.5937774181, 1.7049589157, -0.9390945435, -0.5621662140, 1.6810548306, -1.5684164762, -0.8836572170, 
-1.8578052521, 1.5866806507, 1.4621891975, 1.0292754173, 1.8924248219, -0.9262552261, -1.6216465235, 1.3728036880, 1.7343020439, -0.7177350521, 
-1.8111103773, 0.3406212330, 1.9868285656, 1.4782810211, -0.5765523911, 1.8637216091, -0.0676106215, 0.0539083481, 1.1847517490, -0.5012937784, 
-0.8510109186, 1.7582120895, -1.6764535904, 0.4240889549, -0.8355652094, -1.9714946747, 1.4849944115, 0.6022684574, 1.7095601559, 1.9165778160, 
1.7186112404, 1.8517549038, 1.5032584667, 1.1808004379, 0.8810303211, 1.3956832886, -1.7454547882, 1.2593836784, 0.7684869766, 1.9888472557, 
-1.4583512545, 0.9573764801, 0.3294682503, -1.4715226889, 0.4356575012, 1.7529158592, -1.6078010798, -1.6319530010, -0.1931757927, 1.5769507885, 
-0.1332468987, 0.9558134079, 1.3351628780, 0.1902995110, -0.6200976372, -1.5004023314, 0.2188048363, -1.1351032257, 1.1018662453, -0.0716350079, 
-1.2185254097, 0.8204774857, -0.2198801041, -1.7152668238, 0.0012781620, -1.3388497829, 1.6804163456, 0.2558233738, 1.9205338955, 0.4489033222, 
0.2446703911, -1.5378173590, -0.5937200785, -1.4258612394, -1.0093400478, 1.8419375420, -1.6729452610, -0.6171411276, -1.7900155783, 0.1338789463, 
-1.0401904583, 0.0767376423, -0.9103076458, -1.7050274611, -1.7329628468, 0.4695947170, -1.2054297924, 0.4858419895, 1.3344914913, 1.8964364529, 
-1.5857930183, -1.8840339184, 0.7169139385, 0.1943268776, -1.5993008614, -1.2818078995, 0.8554768562, -1.9188843966, 0.9740152359, 0.7760109901, 
0.5300190449, -0.7813142538, 1.2381935120, 1.9362990856, -0.2071754932, -1.7711465359, 1.7782366276, 0.1198792458, -0.3882876635, 1.9882209301, 
-1.7462416887, 0.5715219975, 0.0649585724, -0.6565493345, 0.8664944172, 0.3319957256, 1.8130452633, 1.6610646248, -1.1821625233, 1.1475367546, 
1.5575010777, -0.7679555416, 1.2635028362, 0.2744152546, 1.4263713360, 1.6642019749, 0.9926073551, 0.2818481922, 1.7453176975, -0.0333774090, 
-0.9421408176, 0.2753367424, 1.1853084564, -1.7039473057, 0.2116358280, -1.0218670368, -1.4750938416, -0.0101277828, 1.0980122089, 0.1366186142, 
-0.0219067335, 1.3517706394, -1.2918593884, -1.9569481611, -1.3047788143, 1.5746350288, 0.3750474453, -1.4917335510, 1.2356996536, 1.1928849220, 
1.6558032036, 0.7932009697, -1.5750705004, 0.9193058014, -0.9323838949, 1.8513009548, 0.5835077763, -1.9397766590, 0.1331491470, 0.3288254738, 
0.0268459320, 1.1910083294, -1.3958377838, -0.7878456116, 1.4870610237, 0.8157978058, 0.1902873516, -1.9880326986, -1.1943298578, -0.7117003202, 
0.1485860348, 0.7837634087, -1.3599298000, 0.8567266464, 0.8268151283, -0.6647087336, 0.4313616753, -0.7981373072, -0.1564422846, -0.3329386711, 
-1.6052522659, -0.5006390810, -1.5397377014, -1.1803227663, -1.5813331604, -0.4721215963, -1.3290219307, 1.0021746159, -0.4118982553, 0.8041272163, 
-0.6689999104, 1.6149477959, -0.0048644543, -0.0648376942, -1.1728978157, -0.5178033113, -1.2490398884, 1.0173895359, -0.5058360100, -0.4433697462, 
-1.6943107843, 1.6427500248, -1.6596062183, -1.0542407036, 0.4994764328, 1.1672089100, 0.2810506821, -1.0691618919, -1.6309282780, -1.8753916025, 
0.5978994370, -1.2361805439, -0.3760306835, 1.0581617355, -0.4165033102, 0.0426361561, -1.4139598608, 0.2544746399, -0.9551892281, 0.1741418839, 
-0.9413980246, 0.3758108616, -0.2109103203, 1.0537376404, -1.6890268326, 0.6161918640, -1.4640657902, -0.9380667210, -0.3664186001, 0.0300981998, 
0.6185634136, -0.0607295036, -0.3271517754, 0.9589571953, 0.8850297928, -1.8276753426, 0.1261661053, -0.8339194059, -0.8968372345, 0.4952378273, 
-0.7093110085, 1.7010622025, 1.2590572834, 0.9146583080, 0.7592239380, -1.1574461460, -1.0427056551, 1.3452639580, 1.0970287323, 0.0021049976, 
-0.4805941582, -1.8443694115, -1.6220841408, 1.3084955215, 1.2093682289, -1.3111109734, -0.0753127337, 1.7453024387, -0.2491778135, 1.5582687855, 
-0.2245993614, -1.6306142807, -0.5024607182, 1.4482488632, 1.3283429146, -1.6174309254, 1.6205735207, -0.5454908609, -0.4513503313, -1.2762637138, 
1.9497470856, 0.8393385410, -1.5752016306, 1.2088043690, -0.2460031509, 1.1840221882, -1.9486417770, 0.7112910748, 0.5292861462, 1.1483869553, 
-1.2866036892, -1.9513078928, 1.3040175438, -0.9086878300, 1.3571875095, 0.5133857727, -0.2197989225, -0.7181251049, 0.2586882114, 1.5310232639, 
-1.1598564386, -1.9659111500, 1.9004089832, 0.3376827240, 1.4823377132, 1.2287521362, 0.7202520370, 1.1029112339, -1.3167387247, -1.7310984135, 
1.8266472816, -1.3669917583, 1.1082401276, -1.7485542297, 1.8418126106, -1.1377629042, 1.4354679585, 1.8931708336, 1.5735282898, -0.0352458954, 
1.0415577888, -1.7130755186, 0.0134463310, 0.3455753326, -0.6217633486, -0.6293661594, -1.1410388947, 1.1584377289, 0.6525087357, 1.1176493168, 
0.6894609928, 1.4926524162, 1.1517381668, 0.5898702145, -0.1696648598, 0.6340758801, -0.1813777685, -1.4494129419, -0.2630130053, 0.5018835068, 
-1.1805113554, -0.4363657236, 1.1348917484, 1.9277288914, -0.1849199533, 0.9767045975, -1.2100340128, -0.7494519949, 0.8698754311, -1.6365057230, 
1.2153022289, -0.0885667801, -1.3495812416, -0.7712515593, -1.7429913282, 0.0286552906, 0.5993821621, -0.8840302229, -0.8129068613, -0.7481091022, 
-1.7663809061, 1.8765542507, -1.2554566860, 1.3853571415, 0.4664242268, 0.5748784542, 0.0194330215, -1.7149534225, 1.1254653931, 1.7564198971, 
0.7869300842, 1.9449541569, -0.6799457073, -0.0781781673, 1.8726830482, 1.1351344585, -1.1014736891, -1.3373510838, -1.6143176556, 1.7684016228, 
-0.9738568068, 1.6009845734, -0.3201650381, -0.3234380484, -1.1702671051, -0.0631563663, 1.7052173615, 1.4291150570, 1.0528132915, -1.1076896191, 
-1.3189939260, 1.2864325047, -1.2311354876, -0.5744507313, 0.6717896461, 1.2352888584, -1.9995723963, -1.3087773323, 1.5203354359, 1.1258931160, 
-1.5523574352, 0.3072655201, 1.0708472729, -0.2323030233, -1.7709127665, 0.9435300827, -1.0971686840, -0.8723864555, 1.6061789989, -0.7114863396, 
-1.1039847136, -1.3676776886, -1.1105018854, 0.5758502483, 0.3088841438, -0.2807689905, -1.4873061180, 0.0141015053, -0.8516539335, 1.5655074120, 
0.9064118862, -0.1706478596, 0.8519396782, 1.6752762794, 1.2549014091, -0.4762705564, 0.9105651379, 1.2553291321, 0.2149519920, 0.4309005737, 
0.3812222481, 0.6625947952, -1.2618340254, -0.5479307175, -1.5697083473, -1.0327467918, -1.6044005156, -0.6668771505, 0.0948667526, -1.9982215166, 
0.6216363907, 0.9908821583, -1.3658992052, 1.5111346245, -0.4332675934, 0.9429850578, -0.7696343660, 0.0794262886, -1.0429135561, 0.3787117004, 
-0.3550662994, 1.8634982109, -1.7919361591, -1.5031266212, 1.5387747288, 1.4629652500, 0.0206027031, 0.4493398666, 0.7182943821, -1.7644450665, 
-1.1197595596, -0.9004833698, 0.8981494904, -0.3815937042, 0.5515859127, 1.3284411430, 0.5856595039, 0.9471852779, -1.3384358883, -1.3194736242, 
0.9489638805, 1.2832005024, 1.6714084148, 1.5830647945, 0.7943351269, -0.7618590593, 0.5260496140, -1.9752992392, 1.3175673485, 1.4831361771, 
0.4034125805, -1.0374990702, 1.3466343880, 0.6114764214, -0.5406256914, 0.8854091167, 0.0744416714, 1.4799771309, -0.6652510166, -1.2072638273, 
1.7155320644, 0.2149891853, -0.1077471972, 0.6136815548, 1.8333957195, -1.5561612844, -0.0578773022, 0.4190552235, 1.3910241127, 0.6036868095, 
1.0995814800, 0.3399879932, -0.1131125689, 0.7709901333, -0.0769473314, -1.3187774420, -1.9908690453, -1.5508975983, -1.2940766811, 1.3266983032, 
1.9322385788, 1.1093358994, -1.7108008862, 1.2788732052, -0.2791876793, -0.2514265776, 0.1642823219, 1.7952542305, -0.7714493275, 1.4990310669, 
-1.4120097160, -1.0559173822, -0.2859795094, 0.4802432060, 1.5577642918, -0.4525839090, 0.9240818024, -0.5001130104, 1.9664711952, 0.3151059151, 
-1.8964262009, 1.0660529137, -1.3449060917, -0.0095388889, -0.1629570723, 0.5781466961, 0.6716837883, -0.1538261175, 1.0272490978, 1.3776071072, 
-0.8271279335, 0.9594876766, 0.4869430065, -0.5379288197, 0.2383608818, -1.7922445536, 1.2106447220, -1.5973570347, -1.9969904423, -1.5608047247, 
1.9016742706, -1.4090000391, -0.6167221069, -0.3843053579, 1.0712430477, -1.0589578152, 1.1631107330, -0.0046750307, 0.4409291744, 1.1295821667, 
-1.6895691156, 0.5445029736, 0.1956350803, -1.0344753265, -1.4650359154, -1.9673221111, 1.5436713696, 1.2066478729, -0.1211482286, 0.5709204674, 
0.5842549801, 1.0517237186, -0.4695919752, -0.9288020134, -1.4862049818, 1.7687687874, -0.7210465670, 1.7244396210, -1.8285882473, -0.7180370092, 
-1.8363649845, -1.9269139767, -0.1270370483, -0.4530870914, -0.3112193346, -1.0557940006, 0.4879550934, -1.1481084824, 0.9395310879, -1.0711157322, 
1.9814734459, 1.2499618530, 1.4733872414, 0.1771085262, -1.7845133543, -1.9916486740, 0.2097864151, 1.7591578960, 1.2149991989, -1.9113618135, 
0.3300783634, -0.2007459402, 1.1403620243, 1.8604862690, 0.8704521656, 1.6541571617, 1.6292550564, -1.8505945206, 1.3785967827, 1.8006668091, 
-0.5686314106, 1.5422317982, 1.8737528324, 1.3043315411, -0.9108552933, -0.4374665022, -1.7514623404, 1.5770998001, 0.4144248962, 1.1880686283, 
-1.4940159321, 0.3958985806, 0.4380304813, 1.9793710709, -1.4269928932, 0.6535170078, 1.9877223969, 0.7827935219, 0.4126751423, 1.2027215958, 
0.8714315891, -1.2572467327, -0.9980243444, 0.0117936134, -1.3967604637, 1.8724277020, -0.3340493441, -1.7675052881, -1.9781666994, -0.9554525614, 
-1.9668384790, -0.5467981100, -1.4132207632, 1.9069144726, -1.2424665689, -0.3240760565, -0.5305520296, -0.9939289093, -0.7469762564, 1.8838729858, 
-1.8058602810, -0.2409923077, 0.2797715664, 0.6321702003, -0.2616211176, 0.8527786732, -0.7143127918, -0.2738986015, -0.3644279242, 1.6983623505, 
-1.0711770058, -1.4929962158, -1.5588843822, -0.0692014694, 0.5187973976, -0.9556447268, -0.1967737675, -1.8152519464, -0.7231501341, -0.1749404669, 
-0.7707045078, -0.6899884939, 1.2782614231, -0.1839252710, -0.7830740213, -1.9642051458, 1.4919986725, 0.6863739491, -0.9581341743, -1.2549775839, 
0.5702469349, -0.7639944553, 0.5040302277, -1.1499814987, 1.8681757450, -1.7575910091, 1.7027969360, -0.8461370468, -0.0314896107, -0.6616308689, 
-1.1477746964, 0.8973333836, -0.1546270847, -0.7066590786, -1.1718680859, -1.6358296871, 0.3376960754, 0.6313581467, -1.4510817528, 1.6145460606, 
-1.5435823202, -0.2217861414, -1.0754425526, 1.7346789837, 1.5942885876, 0.1414835453, 1.7704739571, 1.0862872601, -1.1721426249, -1.1876602173, 
1.8313097954, 1.3981041908, 0.0483453274, 0.3353397846, -1.7518773079, -0.0834789276, 0.5777487755, 1.9509196281, 1.0703840256, -1.4537408352, 
-0.7107111216, 1.9226093292, 1.4435925484, 1.1346616745, -0.7840498686, -1.7282756567, 1.4988319874, 1.5536463261, 0.9030823708, -1.9522497654, 
1.1681923866, 1.3595001698, -0.1740357876, -1.9072501659, 1.0941791534, -0.5797472000, 0.2342331409, 0.8646531105, -1.4934599400, 1.0620906353, 
1.6769928932, -1.6621501446, 0.4601948261, -0.2746617794, 0.6731896400, 0.7083175182, 1.6418592930, -0.7490613461, 0.6592373848, 0.7122433186, 
-0.2028021812, 1.9485261440, 0.6348524094, -0.7592096329, 1.0831878185, 1.8508026600, -0.4874852896, 0.5820198059, 1.4044489861, -1.5844027996, 
0.6297700405, 0.5726411343, 1.7750973701, -1.5442657471, 0.6653909683, 0.8692765236, -0.1240129471, -1.1003756523, -0.2660703659, 0.3825271130, 
1.9617149830, -0.5890774727, 0.7203769684, 0.4219098091, 1.1362607479, -0.6064331532, -0.8697726727, 0.7781200409, 0.6445055008, 1.7894647121, 
-0.5096368790, -1.5582966805, 1.7379908562, -1.8747843504, -0.3175063133, 0.8211786747, 1.9760184288, 1.1950085163, -0.5968015194, 1.3804671764, 
1.6106057167, -1.9670313597, -0.0468915701, 1.3857030869, -1.5112971067, -1.3815004826, 0.2549796104, 0.3646900654, -0.4818762541, 1.9889092445, 
-1.2527828217, -0.5201613903, -0.6001681089, 1.4675941467, 1.9017484188, -1.4639074802, -1.1388390064, -0.9680242538, 1.3142125607, 1.5056664944, 
-1.1785595417, -1.1954243183, 1.9473698139, -1.4405688047, -1.0702085495, -0.3701364994, 1.3806097507, -1.0941903591, -1.1751279831, -1.2161916494, 
-1.7137230635, -1.5645222664, -1.1832230091, 0.2393853664, 1.8211808205, -0.6945201159, 0.8578848839, 0.0761601925, 1.6701698303, -1.6239914894, 
0.0650696754, -1.5826129913, -0.1441528797, 1.4649014473, 1.8849811554, -0.2424044609, -1.9990059137, -1.2538577318, 0.7895712852, 1.3152065277, 
-1.7481912374, 1.6110117435, -1.8802176714, -1.8008213043, -1.8295571804, -0.9504263401, -0.1709578037, 1.5510528088, -0.0446165800, 0.6539142132, 
-1.6651389599, 0.2416603565, 1.0893919468, -0.8483619690, -1.5189542770, 0.9105725288, 0.4571177959, 1.3389306068, -1.0132671595, 0.1272876263, 
1.7149391174, 1.0518023968, 0.5446746349, -0.4292137623, 0.5167038441, 0.4296557903, 1.3283817768, 0.5176980495, 1.1757981777, 0.1179530621, 
-0.1670954227, 1.4276070595, -0.2710354328, -0.0473130941, 1.6267855167, -0.1005926132, 1.0022606850, -0.5441722870, -0.5495398045, -1.0423560143, 
-1.8902580738, -0.2146787643, 1.1993043423, 1.1991336346, 0.9369592667, 1.6803500652, 0.1097061634, -0.6059229374, 1.0192804337, 1.0964391232, 
1.5213646889, 0.7342195511, 0.1482415199, 0.0660393238, -1.6949942112, -1.3350545168, -1.5043047667, 1.6333873272, 1.1826434135, 1.6714932919, 
-0.2486596107, -0.9844520092, 1.0991003513, 1.4803049564, 0.9682350159, 0.7258858681, -0.6202875376, -0.0295044184, -1.8182862997, 0.8301725388, 
0.9281396866, -1.7085443735, -1.3845062256, 0.1274440289, 1.4905893803, 1.5524530411, -0.1922060251, -0.3997044563, -1.0534698963, -1.1729254723, 
-1.3032653332, -1.5321050882, 1.5612940788, 0.8449761868, 0.5339343548, 1.8662998676, 1.5099217892, 1.0296297073, 1.4996871948, 0.6925652027, 
0.7011229992, -0.7489724159, 1.7081131935, -0.1997766495, -1.2686673403, 0.6763482094, -1.4738906622, 0.1110451221, -1.3531563282, -1.2921769619, 
-1.0587823391, 1.5749833584, -1.0007214546, -0.4432884455, -0.2975726128, -1.5101320744, -0.8908354044, 1.5102214813, 0.0901634693, 0.0556948185, 
-1.6627041101, 0.7868981361, 0.5235896111, 1.8985898495, -0.3681255579, -0.9424760342, 1.7648897171, -0.8582038879, -1.9128463268, 1.2645769119, 
1.8343613148, 0.7882766724, -1.4843953848, 1.5424745083, -1.4114999771, -0.7530627251, 0.2188227177, -0.8853906393, 1.3579823971, 0.8656663895, 
-0.1775676012, -1.7007999420, 0.4406497478, 0.8217110634, -0.1440883875, -1.8569228649, 1.3115789890, 0.9650762081, 1.6532983780, -0.5982576609, 
-0.9792290926, 1.9905943871, -1.8113594055, 1.5443603992, 1.8891842365, -0.1794849634, -1.3981153965, 1.6540739536, 0.9623112679, -1.3109618425, 
0.9186511040, 0.7966725826, 1.4773149490, 1.4342556000, 0.3391470909, -1.9341850281, -1.3188071251, -1.4420303106, -0.8195756674, -1.9608247280, 
1.4236361980, 1.0028567314, -1.6616246700, -0.1357141733, -0.1754323244, 0.1942868233, 0.0073630810, -0.8638534546, -0.8406369686, -0.3393385410, 
0.5378890038, 0.1801338196, -0.3487441540, 0.7265295982, -0.2755055428, -0.4595599174, -1.4529553652, 0.3263790607, -0.8054858446, 1.5093557835, 
1.0154170990, -1.8868347406, 0.3060283661, 0.4927320480, 1.5474209785, -1.3548245430, 0.5585470200, -1.7713861465, -0.7968548536, 1.7389712334, 
-1.7322107553, -1.3732187748, 0.7418279648, -1.3938354254, 0.4910671711, -1.4336043596, 0.8004515171, -1.5015699863, -0.2974578142, 1.9598145485, 
0.1590914726, -1.7595688105, 0.1399486065, 1.8103473186, 0.9669609070, 1.8644430637, -0.6492125988, 1.5140054226, 0.1908218861, 0.5453016758, 
1.0233612061, -0.7937608957, 0.6584668159, -0.6706103086, 1.6989710331, 0.2058877945, -0.0254348516, 0.2575180531, 0.4345016479, 1.1777102947, 
-0.0035107136, 0.7022910118, 1.8044915199, -1.2616827488, 1.3084554672, 0.2955584526, -0.6952872276, 0.1089072227, 0.7939887047, 1.0072550774, 
0.0687217712, -1.0469198227, 1.2476863861, -1.7913297415, -1.2365725040, 0.2146470547, -1.9268867970, 0.1142148972, -0.2713475227, 0.2639350891, 
-1.3404834270, -1.2479861975, 1.4701743126, 1.3179833889, 0.0814034939, 1.1691453457, -0.4761286974, -1.9440313578, -0.5733366013, 1.9583730698, 
1.2336788177, 1.4231526852, 0.6606640816, 1.0381703377, -1.8385301828, -0.0308803320, -0.6662710905, -0.5338174105, -1.9219732285, -1.8722825050, 
-1.5265623331, 0.1467485428, -0.9192023277, 1.7211239338, 0.3554186821, -0.1557749510, -0.0642290115, 0.4285318851, 1.9584398270, 1.6644234657, 
-1.3075329065, -1.3820436001, -1.5835627317, -1.8373587132, 1.9359397888, 0.4978408813, 1.3317866325, -0.5401887894, 0.5538094044, -1.2415499687, 
-0.5818157196, -0.2125117779, -1.8183974028, -1.9211516380, -1.1743414402, -1.6569275856, 0.0479679108, 0.1593875885, -0.1907449961, 0.1259946823, 
0.2871050835, 0.2826926708, -1.7272567749, 1.3679027557, 0.0038166046, 0.6281619072, -0.7878723145, 1.9395875931, -0.9433062077, -0.8294323683, 
1.6040110588, -0.2508391142, -0.2114759684, -1.9795516729, -0.0881978273, -0.2755360603, 0.5182890892, -0.7564111948, 1.1842751503, -0.9279015064, 
0.0020387173, -1.3975405693, 0.8595867157, 0.1836414337, -1.3186923265, 1.6852452755, 0.5267138481, 0.7292757034, -0.1553671360, -1.6640312672, 
-1.1447296143, -1.8682621717, 0.6186614037, -0.8719865084, 1.4996404648, -1.3775222301, 1.7561752796, -1.2882318497, -1.4379346371, -1.1871309280, 
-0.1176642179, -1.8339236975, 0.5620300770, 1.6708598137, -1.8134754896, -1.5261678696, -0.6046762466, 0.7048134804, -0.2825790644, -1.4204012156, 
1.7769119740, 1.7194597721, -0.8179417849, 0.6364986897, -0.0968987942, -0.1366341114, 0.3217439651, -1.5701849461, -1.4073585272, -1.8336231709, 
-1.2342162132, -0.5520881414, -1.7018852234, 1.3844449520, 0.5759253502, 1.7977552414, -1.9930771589, 0.3321006298, -1.4904766083, -1.4310119152, 
1.1449699402, 0.3918592930, -1.2649354935, -0.2930002213, 0.0627191067, -1.0784111023, 0.1808319092, 1.4580428600, 1.6264026165, 1.8982529640, 
-1.9623583555, 1.4033145905, 1.6177127361, -0.7803002596, 0.0398132801, -0.4791860580, 1.0830657482, -1.6384426355, -0.0493711233, 1.6757071018, 
-1.4720658064, 0.7164125443, -0.8763810396, -1.1739511490, 0.1008577347, 1.6995444298, -1.3761959076, 0.1077804565, 0.0316450596, -0.8666723967, 
0.6767687798, -0.8233851194, 1.5251867771, 1.4118332863, 0.8836147785, -0.4120939970, -1.6665778160, -0.9355533123, -0.9540512562, 1.9598248005, 
-1.0373003483, -0.9164096117, 1.3631393909, -1.4195876122, 0.3032901287, -0.5970473289, 0.1012263298, -0.6136441231, -0.2354900837, -1.9481447935, 
-0.9379370213, 0.2924442291, 0.7682678699, 0.1856820583, 1.1184930801, -1.1308745146, -0.1147736311, 1.7422971725, 0.9769060612, 1.9168715477, 
-1.1243751049, -0.3463252783, -0.9065135717, -1.5991883278, -0.9344921112, 1.9771010876, -0.0112823248, -0.6010699272, -0.9584521055, 1.0346665382, 
-0.6412452459, 0.0042474270, -1.8817430735, -1.2781058550, 0.5846598148, 0.4215471745, 0.1248466969, -1.3141138554, 1.8079030514, 1.8893566132, 
-1.2622587681, -1.1300339699, 0.1818008423, 1.5060091019, 1.0556480885, -0.6997059584, -1.6248655319, -1.0591255426, -0.9574087858, 1.3520405293, 
-1.1422541142, -0.0817838907, -0.9942846298, -0.0487676859, 0.3190279007, 0.0712232590, -0.0716665983, -1.6922544241, 1.4701533318, 0.9698812962, 
1.3424119949, -1.1710917950, -1.0258712769, 1.4606690407, -0.4491977692, 1.5587885380, -0.1177837849, 1.6756489277, -1.7553253174, -0.3098808527, 
1.5650057793, -1.0175840855, 0.5600852966, -0.2531933784, -1.5115752220, -0.3842667341, 1.0471005440, -1.1364406347, 0.5566077232, -1.9103081226, 
-1.7844001055, 1.4143536091, 0.0079078674, -0.7786848545, -0.6344139576, -1.6730642319, 1.2925384045, 1.2939193249, -1.3653186560, 0.7626917362, 
0.2638006210, 1.9770934582, 1.5915999413, 1.2379293442, 1.4377624989, -0.8575977087, 0.7967178822, -0.6800214052, -1.1819486618, 1.0413925648, 
1.0100977421, -1.6169430017, -1.9761915207, -0.4298169613, 0.1298637390, -1.4877667427, 1.1859164238, -0.8230357170, -0.6242073774, -0.2574758530, 
-0.7333438396, -0.4086074829, -0.8431221247, 1.2745640278, 0.8127076626, 0.5224637985, 1.6015000343, 0.1052460670, -0.1836167574, -1.7638187408, 
-1.1320619583, -1.9198161364, -1.7867252827, -1.5404620171, 1.3181133270, 1.6510372162, -0.3980598450, 0.1148312092, -1.0289843082, 0.4199914932, 
-0.8437761068, 1.9811134338, 0.8030486107, -0.8199676275, -0.4487035275, -1.0670877695, -0.3077343702, -1.2627871037, 0.1098766327, 1.0680582523, 
0.4797370434, 1.3765327930, -1.3405492306, 1.6366147995, 0.6510968208, 1.4721584320, 0.1590785980, 0.2525968552, -0.4225953817, 1.9754619598, 
0.4887781143, 0.4453425407, -1.9443541765, 0.7020528316, 0.9048805237, 1.3737590313, 0.3530898094, -1.4931793213, -0.5114096403, 1.3241055012, 
0.9268121719, 0.6448142529, 1.3052189350, -0.2701392174, 1.8248465061, -1.1434844732, 0.6627728939, -0.4828877449, -0.4062715769, -1.2273504734, 
-1.4148294926, -1.9265345335, -1.8508177996, -0.7553787231, 1.7100803852, 0.8002791405, -1.2832202911, -0.1308410168, -0.9471241236, 0.2941844463, 
-0.1553791761, 1.5416538715, -1.2604730129, -0.0997333527, 0.2437067032, 1.6444075108, -0.7259742022, -1.4032034874, -1.8487716913, 0.7626161575, 
1.9209020138, 1.0780405998, -0.5925695896, 1.2261211872, -1.1920986176, -0.7677229643, -1.9173632860, 1.4706742764, 0.7493894100, -0.3236348629, 
-1.7566761971, 1.3345599174, -0.2501695156, -1.6074938774, -1.4208189249, -0.5400892496, 1.1927852631, -0.7040392160, 1.3290698528, -1.7543389797, 
1.5901451111, -0.8263094425, 1.7873151302, -1.6703279018, 1.0739572048, 0.0310215950, 1.9740796089, -1.6520169973, 0.6278181076, -1.8746922016, 
1.1105990410, 0.5487203598, 1.2033483982, -1.4819703102, -0.2251585722, -1.9887503386, -0.2496932745, -0.1425218582, 1.4819240570, -1.5003039837, 
1.5338432789, 1.7252478600, 1.8342559338, -0.7163263559, -1.8822461367, -1.5865631104, 0.7435843945, 1.3105390072, -0.2906023264, 0.0726542473, 
1.5562002659, -0.7004572153, 1.2463448048, 1.3435151577, -0.3707851171, 0.3203020096, -0.6254631281, -0.3967056274, 0.6682848930, -1.9976449013, 
-0.2713977098, -0.2211158276, 0.5510754585, -1.0680494308, 0.2969138622, -1.6740832329, -1.0567997694, -1.9527795315, 0.1833949089, -1.5748758316, 
-1.4530835152, -0.2827619314, -1.8496279716, -1.6188277006, 1.0009117126, -1.7318741083, -1.2053908110, -0.2555036545, 1.5786650181, 0.5040068626, 
1.8171505928, 1.1348650455, 1.8035495281, 1.0634953976, 0.4783802032, -0.5672354698, -0.6162025928, 1.8529171944, 1.0360589027, -1.9479175806, 
1.8552722931, -1.2353389263, -0.1690334082, 0.4063475132, -0.3033882380, -1.8721196651, 0.7322645187, 0.6398119926, -1.8248991966, -1.0843405724, 
1.0649361610, -1.2779827118, 0.6328973770, 1.2153081894, -0.8968104124, -0.3661907911, 1.4834339619, -0.1022012234, 1.3783054352, 1.0620989799, 
-1.5981943607, 1.1954560280, 0.1969640255, -1.7946448326, 0.2589514256, -1.3246557713, -0.3618803024, 1.6427488327, -1.4717385769, -1.3258213997, 
1.6948311329, -1.6164664030, -0.5611602068, -0.4742022753, 0.7898812294, 1.1354515553, -0.3463219404, -0.4778543711, -0.2247365713, -0.1712211370, 
0.4378049374, -1.1598004103, 0.5507960320, -0.9292975664, -1.9444923401, 1.6539855003, 0.7045116425, 1.5389416218, -0.4482157230, 0.0828170776, 
0.6010406017, -0.0464100838, -0.7217267752, -1.2019954920, 0.1589450836, 1.5372247696, -0.5266512632, 1.7970647812, 1.1799733639, 0.0016100407, 
-1.5287566185, 0.8748047352, 0.3851437569, -0.0899168253, -1.5993976593, -0.8249751329, -0.9544653893, 0.0542802811, 0.6971704960, 0.8207981586, 
1.8830592632, -0.8650245667, 1.6609976292, 0.4338552952, 0.2056779861, 1.7165052891, 0.0878407955, -1.0898103714, 1.2554469109, 1.6396250725, 
0.9930067062, -0.1435124874, -0.4067848921, -1.7287199497, 0.6544921398, 1.7521600723, 1.8085045815, -1.8721592426, 1.5492250919, 0.9884781837, 
0.1294507980, -1.9795315266, -0.1367173195, -1.4854054451, -0.0694483519, 0.2638850212, -0.3103805780, 0.9760861397, -1.6818345785, -1.6132102013, 
-0.2031157017, -1.7987753153, -0.4782346487, -0.5421180725, 0.6350798607, 1.7274432182, -0.8256126642, -1.2770793438, -1.3623671532, -1.5701656342, 
-1.6374540329, 1.6306395531, 0.2863218784, -0.0442390442, 1.9019196033, -1.0591861010, -0.2920788527, 1.7104241848, -0.9313453436, -0.7428538799, 
0.6989023685, 1.1981055737, -0.7223854065, -1.4378149509, 1.7127001286, 1.2081661224, 0.8260700703, -0.5976805687, 0.1842525005, 1.1442356110, 
-0.2108906507, 1.9811367989, 1.3454601765, 1.3108747005, -0.5609812737, -0.0194599628, 1.0383179188, 0.6134059429, 0.7034606934, 1.6759507656, 
1.0432403088, 1.0660066605, 1.3065903187, -0.6704376936, -0.9782323837, 1.2085099220, 0.2703762054, 0.7296888828, 0.9189341068, 1.3390309811, 
1.9868350029, -0.3821636438, 0.5371365547, -0.7355504036, 0.1800215244, 0.2498364449, -1.5273841619, -0.9939085245, 1.6521561146, 0.6568682194, 
-1.8496729136, -0.5587345362, 0.6380050182, 1.4957871437, -1.2478599548, -1.9229762554, -0.5236726999, 1.7904579639, 0.6904296875, -1.8202118874, 
1.4664087296, -0.2663298845, 1.2457947731, 0.7729990482, 1.0632324219, -1.7324374914, -0.0184910297, -0.6663913727, 0.9972512722, -1.0995569229, 
-1.3273605108, 0.9840862751, 0.5182793140, 1.2097759247, -1.7514640093, -1.3016991615, -0.5403875113, -1.2788481712, -0.2956076860, -0.8882315159, 
1.3780200481, -0.1452805996, 0.5530338287, 0.0160250664, -0.6494933367, 1.3051741123, 0.0930488110, 0.8268339634, 1.0956320763, -1.2165215015, 
1.0066220760, 0.5620408058, 0.5171487331, 0.2524168491, -0.6649601460, -0.4196188450, 0.5199792385, 1.3165488243, 0.9139897823, -0.4827693701, 
-1.7830080986, 1.5866291523, -1.4986829758, 0.7352712154, 0.7964050770, -1.2501471043, 1.4335720539, -1.7439823151, -0.5289952755, -0.8620356321, 
-0.6322138309, -1.1509752274, 0.9926838875, 1.9208199978, 0.8650498390, -1.6568095684, 1.2259941101, -1.0419013500, 1.1700243950, 0.3216261864, 
-0.2584228516, 0.1766464710, -1.1163330078, -1.7412741184, -1.5709366798, 0.2187070847, -0.1608929634, 0.9490425587, -0.4647442102, -1.2469031811, 
-1.5337266922, -0.2477524281, -1.6602740288, -1.0324096680, -1.5124810934, 1.1361312866, -0.2825567722, 1.9210908413, 1.3921487331, 1.1884479523, 
-0.9409446716, -1.2400649786, -1.9625271559, -1.9482607841, -1.3192448616, 0.9025225639, -1.6050703526, 1.9067492485, 1.8606212139, 1.5649540424, 
0.2283754349, -0.3978016376, -0.2583996058, 1.1120424271, -0.1390757561, 0.1706635952, -0.6692504883, 1.7000312805, -0.8802938461, 0.8660054207, 
-1.5468719006, -0.4140205383, -1.3817470074, -1.2071459293, 0.5535697937, -0.8942282200, 1.9289853573, -1.7289869785, -0.9731372595, 1.3211340904, 
1.4594609737, 0.0859181881, -1.9189307690, 1.4969336987, 0.1376571655, -1.2381756306, 0.3994565010, 0.5325868130, -1.3314263821, 0.2600777149, 
0.0975408554, 0.8969490528, 1.8622760773, 1.8391411304, 0.0089914799, -0.2767996788, 0.0098047256, 1.3397409916, -0.5767683983, 1.1295108795, 
0.2057464123, -0.1236402988, -1.2845096588, 0.8239994049, 0.6692140102, 1.2690601349, 1.9297711849, 0.5981993675, 1.5400731564, -1.0433661938, 
-0.0806665421, 0.9995341301, 1.0425519943, 0.0004026890, 0.4964678288, -0.8197908401, 0.7622268200, -1.1040756702, 1.7127959728, 1.4308004379, 
1.1560020447, -0.1896631718, 0.3277494907, 1.0182781219, -0.3505219221, -1.6632589102, -1.2585216761, 1.6592826843, 1.6764822006, 0.1647100449, 
0.7887938023, -0.1177713871, -1.9589302540, 1.5042841434, -1.2937721014, 0.7102837563, 0.7733442783, -1.3640010357, -0.6915171146, 0.3134174347, 
-0.4073671103, 1.2278163433, -0.6870484352, -1.3648152351, -0.7717809677, 1.8094193935, -0.1846059561, 1.9904458523, -1.2946562767, -0.4718098640, 
1.4212462902, 1.8613457680, 1.3385269642, -0.2510040998, 0.8796236515, -1.0119949579, 0.0857369900, 1.6211020947, -1.3527121544, -0.2377808094, 
-0.2141879797, 1.4360816479, 1.6444478035, -0.1731182337, 0.9403657913, -1.6493242979, -1.4628345966, -0.2862899303, -1.0133252144, -0.1543517113, 
-1.9728724957, 0.5793075562, -0.9265352488, -0.6599209309, 1.2144925594, 0.3016836643, -0.8505015373, -0.9701133966, 0.2921295166, -0.1451578140, 
0.5580766201, -0.2866240740, -0.2838121653, -0.1033962965, 1.4623718262, -1.4041885138, 0.8846087456, -0.4518910646, -1.7830864191, 1.5318965912, 
1.3103282452, 0.0027256012, 0.9679782391, 0.9547760487, 1.8296072483, -0.0916560888, 1.3054516315, -1.6332272291, 1.6220541000, -1.7078735828, 
0.2124211788, 1.6491816044, 0.8714339733, 1.2858858109, -1.0107394457, 0.0859265327, -0.4124305248, 0.1387588978, 1.1158132553, 1.8796989918, 
1.9936010838, -0.3261101246, -0.4069249630, -0.2902110815, 1.5704934597, -0.9445530176, 0.3056004047, 0.4551024437, 0.6035559177, 0.5225138664, 
-0.0130010843, -0.0861159563, -1.4747605324, -1.0450229645, -1.1313400269, -1.6451531649, 0.8633210659, -1.8258882761, -1.2783803940, 0.4853751659, 
-1.5337618589, 0.9340407848, 0.1345565319, 1.3376722336, 0.2199265957, 1.1238172054, -0.5764012337, 1.8074960709, -0.7374238968, -1.4605879784, 
1.6871950626, -0.7438228130, 0.2133018970, -0.7197299004, 0.9659659863, -0.2162046432, 0.3357169628, -0.7284334898, -1.7611023188, -1.0607271194, 
1.7940804958, 0.2258965969, 0.8531568050, -1.6806800365, 1.1808736324, 1.7218167782, -1.3258332014, 0.0441946983, 1.8959286213, -0.6042135954, 
-1.4704301357, -1.6378333569, -1.6701729298, 0.6641266346, 1.6998388767, 0.5497536659, -0.2120562792, -0.8765622377, 0.3572494984, 1.0505197048, 
-0.3371503353, 0.0444445610, -1.6933029890, 1.8761515617, 1.3247146606, 1.2726631165, -0.3400532007, -0.3395683765, -1.4557703733, -0.1011555195, 
0.5997045040, -1.6616899967, -1.8752588034, -0.5471386909, -1.3423700333, 1.3056149483, -0.8253219128, -0.6682031155, -0.6501902342, -0.9293932915, 
0.7275831699, -0.1206203699, -0.5672266483, 1.0574102402, -1.4564938545, -0.8673877716, -0.3928360939, 0.3314499855, 0.2560501099, 1.9644134045, 
-0.6180303097, 1.9188997746, 0.0088579655, -0.3113332987, 1.7950510979, -0.6664273739, -1.0386703014, -0.5450019836, 0.9940042496, -0.4944405556, 
1.3538424969, -0.4062913656, -0.1561305523, 1.4785835743, 1.0465698242, 0.5014994144, 0.7841985226, -1.7787519693, 1.8332962990, -1.8659917116, 
-0.7081452608, 0.5608794689, 0.0133879185, 0.7246279716, -0.3817101717, 0.5568940639, 1.8572404385, 1.2254536152, -1.1116559505, 0.1132903099, 
1.1898670197, 0.2703137398, 0.0321900845, -0.8012750149, 1.9589803219, -0.1727588177, 0.5322976112, -1.0796899796, 1.2822391987, -0.4736982584, 
0.4258694649, 0.6360816956, 1.1200103760, -1.7302610874, 0.1146652699, 0.1665802002, 0.7712385654, -1.1011359692, 0.3878283501, 0.6045348644, 
-0.9671276808, 1.6796829700, -0.8345856667, 1.0462601185, 0.4043111801, 0.7837042809, -0.3968456984, 0.2615513802, 0.0091578960, 0.4914982319, 
-1.6251581907, -0.8009750843, -1.2381880283, 0.4070317745, 0.3977499008, -1.2792077065, -1.7657269239, -1.0699523687, -0.3588975668, 1.5165121555, 
0.4563493729, -1.9330281019, 0.1525938511, -0.4236402512, -1.6632891893, -1.7327406406, 1.7429399490, 1.1079492569, -0.8338767290, 0.1307682991, 
-0.2875159979, 0.1989955902, -0.1895486116, 0.8778984547, -0.7547441721, -1.7852375507, -0.3383975029, 0.8484101295, 0.4763140678, 1.6707603931, 
-0.6600915194, 0.8511557579, -1.1302146912, 0.1017203331, -0.7418123484, 1.2675354481, 0.8225126266, -0.5075392723, -1.8024170399, -1.5363849401, 
-0.9910269976, 0.6539323330, -1.4694130421, 1.1615669727, -1.7697079182, -1.1327022314, 1.4288260937, 1.9732322693, 1.9752471447, -1.4050505161, 
0.1040005684, -0.3122688532, 0.7939450741, 1.9144518375, -1.4343705177, -1.9607992172, -1.8707855940, 0.2272319794, 0.8876109123, 0.6055283546, 
-0.1020075083, -1.7724806070, -0.5433158875, 0.7677776814, 0.3292398453, 0.7148718834, 0.0353131294, -0.8482475281, -1.7926673889, 0.2328960896, 
-0.3846324682, -0.7836945057, -1.1131715775, 0.1459546089, -1.6221276522, -0.8828793764, 1.0132522583, 1.8066985607, -0.9096472263, 0.9884994030, 
-1.5983519554, 1.1943533421, -1.3237695694, 1.1955931187, 1.1088051796, -0.7581400871, 1.2347939014, 1.2380197048, 1.4690918922, 0.1224048138, 
-0.1564520597, -0.6329156160, 0.3499243259, 1.3002321720, -1.8651378155, -1.3208358288, 0.0151040554, 0.1701753139, -0.1690833569, 0.2224364281, 
-1.5969285965, 1.4462842941, 1.4387419224, -0.7101000547, -0.4077612162, 1.8166143894, 0.4070205688, -1.3945090771, 1.6233129501, 1.4973733425, 
1.5939903259, -1.9750390053, 0.6917266846, -1.7297792435, 1.2205541134, -0.1994681358, -0.4879194498, 0.4553480148, -0.9614484310, -1.0188274384, 
-1.4222469330, 0.8820993900, 0.3482568264, 0.9276773930, 0.1823315620, 0.4831190109, 1.6068413258, -1.8025643826, -1.3467056751, -0.5622419119, 
0.4198720455, -0.9436342716, -1.1159577370, -0.1413857937, 0.3462655544, 0.4762809277, -0.3247714043, -1.2467138767, 1.0817720890, -0.7014584541, 
-1.7493405342, 0.6757624149, -0.6764973402, 0.9423861504, 0.9459829330, -1.4559432268, -1.2570819855, -1.5419363976, 0.9994049072, -0.2185305357, 
-0.5607638359, 1.5771577358, -1.3364310265, 1.7874929905, 0.5048351288, 0.8459005356, 0.2706120014, 0.1116764545, 1.0433361530, 0.9239063263, 
1.5494346619, -0.5367915630, 1.9802722931, -1.5665230751, 1.3218226433, 0.3265378475, 0.9097578526, -1.0029487610, 1.0798239708, -0.0084700584, 
0.2955927849, 1.3304834366, -1.3327076435, 1.6190953255, 0.2728695869, 1.6132752895, -1.8368477821, 1.0157876015, -1.9286609888, 1.1625568867, 
-1.2027430534, -0.4894248247, 0.7397148609, -0.5391739607, -0.7019318342, -0.7554500103, -1.6932733059, 1.5686802864, 1.3562264442, 1.3500628471, 
0.4925866127, 0.9056611061, -1.1867287159, 0.4728589058, 1.3391380310, -1.8649060726, -1.2006032467, 0.2488958836, -0.8678549528, 1.8792207241, 
-1.7595740557, 1.4277377129, 1.2097041607, -1.0922818184, 1.0468332767, -0.5174262524, -1.4790065289, 1.2099854946, -1.5016386509, -1.4076673985, 
0.3725423813, -0.7043817043, 0.1029076576, -0.8877427578, 0.7564442158, 1.4009759426, 0.3568072319, 1.0631709099, 0.9696562290, -0.2869663239, 
0.4132337570, -0.5377571583, -1.3813052177, 1.2265050411, 1.9351017475, 1.9578328133, 1.3615989685, -1.2655014992, 0.2067286968, -1.5062559843, 
-1.3862807751, 0.4471547604, 1.9214818478, 1.8234233856, 1.3548729420, 0.9683151245, -0.6940027475, 1.8758664131, 0.1783003807, -0.1956415176, 
-1.5318009853, -1.4491572380, 1.0999767780, 0.5711066723, -0.3368999958, -0.1435787678, -0.0279175043, -1.9800928831, -1.0804078579, -1.0582613945, 
-0.2670592070, 1.3328258991, 0.4039814472, 0.3516354561, 0.5593309402, 0.3390831947, 0.3094682693, -0.0790699720, 1.0735816956, -1.4838027954, 
0.4146740437, 1.6873006821, 0.9633519650, 0.3361558914, 1.5107240677, 0.3182249069, -0.6955289841, -1.1832785606, 0.1940913200, 1.4827713966, 
0.6210799217, 0.6622903347, -1.9663857222, -0.2789433002, -0.7666028738, -0.3032855988, 1.5774779320, 1.2054796219, -0.2833784819, -1.5029299259, 
-1.8527816534, 1.4495623112, 1.8298959732, 0.5511999130, -0.1988021135, 0.3892271519, -1.1097168922, -1.8893337250, -1.6898429394, 1.9638645649, 
-1.3731365204, 0.7248311043, 1.6511654854, 1.5902154446, -0.9390128851, 1.1618895531, -0.0915596485, 0.3654582500, 1.9786109924, -1.8974683285, 
-0.1517703533, 0.5996906757, 0.7648222446, -0.1181560755, -1.6792523861, 1.9982192516, 1.5785582066, 1.8982255459, 1.2036991119, -0.7048201561, 
-1.6047043800, 1.3509173393, -1.2552578449, -1.7748084068, -0.0978827477, 0.5459399223, 0.6144185066, 0.7924003601, 0.6566061974, 0.9245758057, 
0.7562649250, 1.2834696770, -0.3505930901, 0.4074301720, 0.8736851215, 0.7103939056, -0.4306801558, -1.2178745270, -0.9241478443, -0.4520692825, 
-1.1153428555, 0.9240818024, -1.8523784876, 1.6494793892, -1.1940743923, -1.5316309929, 1.6476986408, -1.6155160666, -1.6334054470, 0.8513977528, 
-0.3203362226, -1.2381099463, 0.2023150921, 0.4244058132, -1.0129183531, -1.8955676556, -1.0296540260, 1.6015002728, 0.8968327045, 1.6269521713, 
0.5260758400, -0.3469024897, 0.9104218483, -1.8245171309, -1.9394721985, -0.2158930302, 0.8858768940, -0.3701523542, 0.5662324429, 1.9617290497, 
1.1777782440, 1.4508895874, 0.8858106136, 1.3253998756, 1.1003689766, 1.6917364597, 1.7937688828, 0.7480676174, -1.9237797260, -1.8396365643, 
-0.4005347490, -0.2441158295, -1.0777465105, 1.8017802238, -1.8197100163, -0.0906648636, 1.9062128067, -0.8493640423, -0.4891645908, 0.8030452728, 
-1.2224118710, -1.9630887508, -1.5438570976, 1.6880099773, -1.7876058817, -1.4833292961, -0.5278830528, 1.0982708931, 0.1465184689, -1.9616506100, 
1.0599999428, -0.6757032871, 1.4892389774, -0.0541894436, -1.3503034115, 0.5896077156, -0.3624531031, -1.5565346479, -0.6623246670, -0.2862327099, 
-1.3961712122, 0.9371404648, 1.4696514606, -0.4739177227, 0.7389209270, 1.6499414444, 1.4354174137, 0.6451334953, -1.1994227171, -1.0537471771, 
-0.5518211126, -0.4218345881, -1.0168359280, -0.0956782103, -0.7338247299, -0.8044418097, 0.4209926128, 0.7382922173, -1.7061709166, -1.4324891567, 
0.7766416073, 1.3538289070, -0.1081924438, 0.2658803463, -0.7003604174, 0.5415041447, -1.1445116997, 0.9371864796, 0.9849693775, 0.1931636333, 
-1.3490462303, 1.5887982845, -0.8696959019, -1.8793948889, -0.8851194382, 1.8692250252, 1.7705464363, -1.4497020245, 0.5143585205, -1.4288761616, 
-0.5034493208, 1.9625375271, 0.1492891312, 0.4797146320, -0.1331405640, 1.4154644012, 1.6752729416, -1.7121480703, 0.1537566185, 1.9691019058, 
-1.1446371078, -1.0696017742, 1.3229310513, 0.7471704483, 1.1962785721, -1.3774294853, -0.7113254070, -1.9482331276, 1.5597569942, -1.7263559103, 
0.2449305058, -1.7892892361, 1.8624422550, 1.3752346039, -1.6686842442, -1.0226771832, 1.2444596291, -1.8981376886, -0.4723792076, -0.2411818504, 
-1.3270139694, 1.0241715908, -0.2786443233, 0.8222751617, -0.4961137772, 1.5882151127, 0.2377395630, -0.8208409548, 1.8760671616, -1.6085038185, 
-0.8517389297, -1.2685700655, -0.6781055927, -1.5288078785, 1.4786005020, -1.4818269014, -0.9062373638, -1.2327250242, -1.4300599098, -1.3464803696, 
-0.9590809345, 0.8148705959, -1.1357696056, -1.0966385603, 0.1901051998, -0.8044538498, -0.1193156242, -0.5654352903, -0.7025915384, 1.4083051682, 
1.1933829784, -0.0296055079, 0.4324767590, -1.0852613449, -1.2073304653, 1.9363629818, -1.4970462322, 1.0304090977, -0.8844780922, -1.6209791899, 
1.4219052792, 0.2637829781, -0.8895492554, -1.2562001944, 0.7349750996, -1.4109487534, -0.7380270958, 1.8287377357, -0.6436737776, -0.1680870056, 
-1.5177426338, 0.3972451687, -1.3532165289, -0.6535122395, 1.3006067276, 0.8368885517, 0.5420339108, -0.8187088966, -1.7285466194, 1.8394424915, 
-1.4104037285, 1.4648363590, -0.1901631355, 1.0220730305, -1.6204251051, 0.6025063992, 0.9584357738, -1.1174713373, -0.3670843840, -1.9260421991, 
-0.7384505272, -0.9451789856, 0.3377408981, 0.3720002174, -0.2013791800, -0.9272841215, 0.9610514641, 1.0605936050, -1.0985463858, -1.6826224327, 
-1.1074934006, -0.6162890196, 0.7146229744, -0.4607099295, 0.7301988602, 0.0152297020, -1.6238212585, -0.7277672291, 1.1965208054, -1.3523679972, 
-0.8883248568, 1.7861170769, -1.8875317574, 0.9215121269, 0.8081901073, -1.5079568624, -0.4759814739, -0.2333741188, -0.6254281998, 1.1569340229, 
-0.1594163179, 0.6361212730, -1.7882449627, -1.8216755390, -0.9918783903, 0.0103759766, -0.7489596605, 1.9691729546, -0.9290304184, 0.1524939537, 
-1.7134493589, -0.0365238190, 1.5362050533, 1.0011734962, 1.5027661324, 0.2664039135, -0.9835968018, 1.8789448738, 1.5386364460, -1.7870759964, 
-1.4734230042, -1.3496882915, 1.9990410805, -1.3609547615, 1.5718238354, 0.8072309494, -0.8689116240, -0.9041577578, -1.4261431694, 0.5056600571, 
-1.7472236156, 0.4144406319, -0.8582185507, -1.5354685783, 0.5927650928, 0.1499030590, 0.4749073982, 1.8438053131, 0.1190760136, 1.5458767414, 
-0.0037006140, 0.4056267738, -0.4906470776, -0.4674955606, -0.5931997299, -0.9878808260, 1.7989082336, 0.4232034683, -1.1089358330, 1.3375446796, 
0.6361274719, -0.5823589563, 1.9878563881, 0.6351683140, 0.0566861629, 1.5596802235, -0.5576006174, 1.1877746582, -1.3444775343, 0.0162563324, 
-0.3065652847, -1.0917012691, -1.5693031549, 0.8352162838, -0.6271697283, 1.0234618187, -1.0148807764, 1.8477375507, 0.8672671318, 1.1041953564, 
1.3936142921, -1.1364333630, -0.4901779890, -1.0970327854, 0.3960709572, 0.9166221619, -0.0849134922, 0.1949791908, -0.6601743698, 0.8061506748, 
-0.4674760103, 1.9759531021, -1.7762082815, -0.4796195030, 0.6111214161, 0.2804780006, -0.9199392796, -1.9464792013, -0.5317473412, -0.2644168139, 
0.0697770119, 1.1616873741, 0.6438820362, 0.5004739761, -0.0030964613, -1.9832878113, -0.4760642052, 0.9820227623, 1.8644497395, -1.6087968349, 
0.0862181187, 1.2580640316, -0.7452303171, 1.5960400105, -1.8389687538, 1.6508407593, 0.5126624107, 0.0761177540, -0.1541800499, 1.8524880409, 
-1.1177315712, 1.3783440590, 1.8284409046, -0.8939398527, -1.1012755632, 0.4395623207, 1.3865382671, -0.0212148428, 0.4930832386, -1.1452091932, 
1.7143683434, -1.4371397495, -1.9835218191, 0.3582501411, 1.0633342266, 0.0133817196, 0.3749623299, -1.4127298594, -1.0045953989, 0.2394120693, 
-1.0215268135, 1.0816226006, -0.5025240183, 0.2332429886, 0.6776628494, -0.3414927721, -0.1159163713, -0.8096749783, 1.7346251011, 1.7299036980, 
-0.9571870565, -1.3831064701, 1.1082477570, -1.1287460327, -0.2770463228, -1.9930279255, 1.3108162880, -0.8905081749, -0.0142427683, -0.1961005926, 
-0.0357173681, -0.2998744249, 0.3667597771, -0.0192391872, -1.9416241646, -0.5699059963, 1.9941425323, 0.4333381653, 0.0173640251, -1.0104528666, 
-1.3272498846, 0.9958372116, -1.9288301468, 0.1702260971, -0.7709197998, 0.7488327026, 1.8287334442, 1.1131639481, 1.9391577244, 1.5633585453, 
0.8430676460, -1.0180293322, -1.8197480440, -0.0486847162, -0.1467753649, -0.0967943668, -0.0417126417, -0.8359590769, 1.0126974583, 1.9440445900, 
0.9679403305, -1.0230199099, -0.3558298349, -0.6652998924, 0.9577410221, -0.2974541187, 0.7647941113, 0.9518835545, -1.8641159534, -1.2178418636, 
1.9414305687, -1.1913657188, 1.7779955864, -1.9873994589, 0.9788603783, -0.9929242134, 0.7614331245, 0.8075938225, -1.8797602654, 0.7005908489, 
0.3709521294, 0.9633073807, 1.6825616360, 0.5512042046, -1.0853774548, -0.4642138481, -1.5455902815, 0.8729097843, 0.6998271942, 1.4671070576, 
0.8169543743, -0.3322324753, -1.5559127331, -1.5388753414, 1.0024676323, 1.4018282890, 0.1636705399, -0.2327382565, 0.3537118435, 0.2995545864, 
0.5494198799, 0.2951424122, 1.1081888676, 0.3274154663, 0.3077430725, 0.0870492458, 1.3344912529, -0.9308238029, -1.1053571701, 1.4547309875, 
1.7697670460, 1.2655949593, 0.4180381298, 1.4523284435, -0.1832008362, 1.3326606750, -1.0118852854, 0.2712090015, 0.2055706978, 1.6879417896, 
-0.2616839409, -0.9774749279, -0.6442906857, 0.1824033260, -0.5163502693, -1.6418230534, -0.4157683849, 1.6473202705, 0.1254386902, 1.9379434586, 
-0.0531251431, -1.3251414299, 0.2330858707, -0.9449362755, 1.0022740364, -1.4591711760, 1.1421129704, 0.3367652893, -0.3899950981, -1.9632441998, 
-0.2085038424, -0.6202280521, 1.3023509979, -1.7904655933, -1.1678994894, -0.8808499575, 1.5421950817, -0.1797847748, 1.3903589249, -0.2522342205, 
-0.4918429852, -0.8713248968, 0.7702908516, 0.8638663292, 1.3110783100, -1.7460592985, 1.2220432758, -1.1046900749, 1.9012608528, -0.6525180340, 
-1.1667466164, -0.1518641710, 0.0223405361, 1.0663392544, 0.9031996727, -0.9753854275, 1.6071679592, 0.0453126431, 1.3613796234, -0.7828271389, 
0.0820684433, -0.8471240997, 0.5969448090, -0.6155806780, -0.6375898123, 1.4290454388, 0.5035693645, -1.0953946114, -0.7507394552, -0.1060715914, 
0.6523711681, 0.7574176788, 1.0226035118, -0.5773378611, -0.3787159920, 0.3336818218, -0.3233971596, -1.1566727161, 1.2289917469, -0.4221361876, 
0.1908092499, -1.9377548695, 1.4259996414, -1.7868502140, 1.1285843849, 0.3291993141, -0.7622356415, 0.7357523441, -1.6254881620, -1.4008560181, 
1.9529252052, 0.4565801620, -0.2479801178, 0.5498700142, 1.8409993649, 1.1144301891, -0.0210845470, 0.3445687294, -1.9809645414, 1.2281758785, 
-1.7615028620, 0.6714067459, -0.0144064426, 1.2611005306, -1.9059312344, 1.6068775654, -0.4052176476, -0.2293283939, -1.5497951508, -1.1762259007, 
1.3485352993, 0.6410140991, -1.1139806509, 0.7745349407, 0.8541638851, -1.9853962660, -0.8962657452, -1.9080717564, 0.7503559589, -0.5217539072, 
-1.3089276552, 0.7032811642, 1.9348261356, 0.4430923462, -0.7468487024, 1.7758257389, -0.4424777031, 1.2320666313, 0.1203944683, -0.4234421253, 
0.4602425098, 0.3588917255, -1.7520354986, -1.5541638136, -0.3800077438, -1.6579667330, -1.9472863674, 1.2147746086, 0.1127049923, -1.4970815182, 
-1.9614512920, -0.5387597084, 1.1439325809, -1.0754318237, -1.7642247677, -0.0019034147, -1.0608282089, -0.6604905128, 0.0900249481, 1.6895277500, 
0.8177554607, 0.7810971737, 0.3928089142, 0.7525818348, -0.7758104801, 1.6459603310, 0.5284073353, 0.7817118168, 0.8780269623, -1.3511980772, 
-1.6417303085, -0.6617304087, 1.0076935291, -1.3937659264, -0.2158942223, -1.3723142147, -1.0517325401, -0.1631805897, 1.8424603939, 1.0609724522, 
0.3397378922, 1.8810091019, -1.4777873755, -0.5163294077, -1.1944227219, -1.2420121431, 1.4817671776, -0.2552509308, 0.0974972248, -0.4282078743, 
-0.5657231808, -1.0847470760, -1.6471105814, 1.8270857334, 1.6678345203, -0.4229211807, 1.4730460644, 0.1962420940, -1.6412093639, 0.3510730267, 
0.8450438976, -1.2829396725, 1.6893427372, -0.1472625732, -0.6767054796, -0.5265516043, 0.4804232121, 0.2715618610, 1.3102676868, 0.3228836060, 
-0.6674656868, -0.3499943018, 0.2038927078, -0.1452531815, 1.1336762905, 1.0094699860, 0.6127347946, 0.6154434681, -1.2457810640, -1.2897679806, 
-1.8127642870, 0.1884958744, -0.3745151758, -1.4598748684, 0.0155816078, -0.7066805363, 0.1172039509, -0.5113722086, 1.4895615578, 0.4759945869, 
1.8397006989, 0.3346052170, 1.1930549145, 1.5290434361, -1.8126572371, -1.4836506844, -0.9975081682, 0.6677660942, 0.7879114151, -1.6872403622, 
-1.0093505383, -1.8795543909, -0.0372346640, 1.1945421696, -0.0248075724, -0.9035583735, 0.2040121555, -1.4120728970, 1.7118852139, 0.9582312107, 
-0.7018408775, 1.8991208076, -0.8532731533, 0.9236440659, -1.5607540607, 1.1623084545, -1.7830365896, 0.5564498901, -1.3490637541, 1.7065248489, 
-0.9675556421, -1.5093629360, 0.0411303043, -1.7745007277, -1.9803195000, 0.2284729481, -1.2581512928, -0.9778276682, -1.1037609577, 1.5297598839, 
-0.6650681496, -0.1131114960, 1.6502056122, 1.2976970673, -0.9185692072, -0.3746020794, -1.6058613062, 1.2854428291, 0.2133250237, -1.8939760923, 
0.2436740398, 1.5114843845, -1.9948552847, 1.3904008865, 0.4351282120, -1.5556094646, 0.5527095795, 0.6520917416, 1.0008404255, 1.2036457062, 
0.3586165905, -1.9667152166, 1.6942827702, -1.6002531052, -1.7412159443, 1.7139632702, 0.6282198429, -0.9993673563, -1.2638645172, 1.5244588852, 
-1.4696073532, 0.0710673332, -0.5886526108, -1.8194018602, -0.6312354803, 0.4927783012, -0.1940038204, -0.2370966673, -0.2217788696, -1.9806786776, 
-0.1310728788, -1.9781048298, 1.5308055878, -0.1259281635, 1.4122960567, -0.0340660810, 0.3184623718, -0.0349944830, -1.3819743395, -0.6806972027, 
-0.8313487768, 0.9766423702, -0.6474124193, -1.1370658875, 1.3763892651, -0.3886283636, -1.4231026173, 0.0046091080, 0.6120042801, -0.6869671345, 
-0.4709320068, 1.1423969269, 1.3841001987, 0.9404153824, 1.3229951859, -1.2471351624, -0.5668064356, -0.8710087538, 0.5157680511, 1.2114148140, 
-0.8516874313, -1.6153047085, 1.2333097458, -1.3208818436, 0.2587671280, 0.6456058025, 0.6450519562, -1.4227703810, -1.3893885612, 1.2630777359, 
-0.1034675837, -0.2207373381, 0.2397198677, 1.2491199970, 0.6421966553, -0.3838908672, -1.1395084858, 1.2190940380, 1.6207182407, 1.4724957943, 
-1.4678730965, -0.8502137661, 0.6148927212, 1.9162271023, -1.9097983837, -0.0621120930, -1.3309080601, -0.4766047001, 1.0668792725, 1.1848602295, 
-1.2651901245, -1.7848082781, 1.5695555210, 1.9681198597, -1.1056901217, -0.1716773510, 0.6137256622, 1.5393619537, 0.4055523872, 1.2243371010, 
0.8024394512, -1.6979151964, -0.9964003563, -0.9578405619, 1.5512046814, 1.6457962990, 0.6582684517, -1.5883035660, 0.8648903370, 0.2789866924, 
1.8841922283, 1.3970172405, 1.4287729263, 0.4990851879, 1.3132443428, 1.5189745426, -1.5630270243, 1.9823362827, -0.9576301575, 1.5038521290, 
1.1671965122, -0.2228201628, 1.7190439701, 0.7367520332, -0.2547004223, -1.3866461515, -1.4349253178, -1.6409747601, -1.8472843170, 0.9706270695, 
1.5833623409, 0.9551551342, 1.2727117538, -1.4130380154, 1.9973144531, 0.8239164352, -1.7672415972, 0.6555831432, 1.2356128693, 1.0976486206, 
-1.0654301643, 1.1198050976, 0.4946658611, -1.6366571188, -0.3811097145, -0.1920897961, 1.8823175430, 0.0558631420, -0.2097535133, -1.0753126144, 
-0.4402844906, -1.0425570011, 0.7018673420, -0.7212405205, 1.6941950321, -1.5528331995, -0.1078867912, -1.7407304049, -1.1938078403, 0.0448288918, 
1.2298965454, -1.6104456186, -1.0000159740, 0.5026082993, -1.0234836340, -1.0027014017, -0.6734751463, -0.7907252312, 1.6528818607, -1.4378621578, 
-1.6930766106, -1.4125483036, 1.6819429398, 0.8015892506, -1.0492055416, -0.6991668940, -1.3905004263, -1.1668879986, 1.3566963673, 0.3997461796, 
-0.2422004938, -1.0835881233, 1.3571891785, -1.5403332710, 0.1951713562, 1.0513839722, -1.0931664705, -1.9127155542, 1.3106536865, -0.2869744301, 
0.1321134567, 0.5405502319, 0.1025800705, 1.1320974827, -0.9568413496, 1.0790963173, -1.8706039190, 0.3696835041, -1.7116287947, 1.7822778225, 
0.9318213463, -1.4047052860, -1.6302704811, 0.6137642860, 1.3968839645, -0.6794760227, 1.9145972729, -1.9936164618, 0.1536359787, 1.2712936401, 
0.4061295986, 1.9114356041, -1.8122944832, -0.2366813421, -1.6288976669, 0.3828768730, -1.1852972507, -0.7220641375, 0.4701614380, -1.8746434450, 
0.9909615517, -1.3977252245, 0.6659069061, -0.9064584970, 1.7343721390, 1.7090654373, -1.8273621798, 1.8637683392, 0.0787491798, -1.5389909744, 
1.6460461617, -0.9894295931, -0.9436963797, -1.9842243195, 1.6243345737, -1.5468122959, -0.6637003422, 1.5389318466, -1.5404288769, 1.4899358749, 
0.8102257252, 0.8657007217, 1.4013712406, 0.9979312420, -1.3709805012, 1.7724735737, -0.6191918850, -0.5562777519, -0.9495905638, 1.8509695530, 
-0.4309211969, -1.9586291313, -1.5467557907, -1.7650144100, -0.8650876284, -1.8123835325, 1.9440510273, -0.6924498081, -1.9486151934, 0.0228002071, 
-0.2314406633, 1.6974308491, 1.0333704948, 0.8248629570, 1.7132065296, 0.6577050686, 1.2780506611, -0.9504936934, 0.1966371536, 1.7376217842, 
-1.4605579376, -0.9931371212, 0.6033225060, 1.9408133030, -1.9952058792, 1.2323420048, 1.7132871151, -0.6143977642, -1.3239357471, -1.2363035679, 
-0.7634282112, 0.2451429367, -1.1949325800, -0.3101840019, 0.4801285267, -0.0600202084, -0.1225675344, 0.4241797924, 1.2475299835, -0.0711827278, 
-1.5530201197, -0.9839106798, -0.3737517595, 1.4803504944, 1.8409521580, -0.6605452299, 0.1380555630, 1.1190028191, 0.3889610767, -1.6653072834, 
0.8566246033, 0.9284031391, -0.6584444046, -0.5400528908, 0.8692164421, -0.6536502838, -1.3077108860, 0.5825035572, 0.7319519520, -0.6316466331, 
1.3461999893, 1.9685237408, 1.6134963036, -1.8487324715, -0.3416602612, 0.0936248302, 0.0912473202, 1.5357720852, -1.4821953773, -0.6612226963, 
-0.5354106426, -1.0352154970, 0.3548667431, 1.0908377171, -1.5548651218, 0.1958189011, -1.5697076321, 0.5831904411, -0.6851782799, 0.8192534447, 
0.9178831577, -1.8285536766, -0.2523434162, -1.7405612469, -0.3686064482, -1.3831267357, -0.3942115307, 0.3236825466, 1.1993768215, -1.6622595787, 
1.6920359135, 0.5455768108, -1.6937358379, 1.3055322170, 0.6968443394, -0.0353962183, -0.6008427143, -1.2119083405, -0.4996240139, -0.0830380917, 
0.1268689632, 0.9649653435, 0.8817462921, -1.5182642937, 0.0558030605, 1.3268811703, 0.6775546074, 0.4860954285, -0.0899282694, 1.9923763275, 
-0.6946511269, -1.1720449924, -1.8361772299, 1.0530054569, -0.9126062393, -0.2047836781, 1.6698787212, 0.6931822300, -1.8811011314, 0.8692555428, 
1.0309226513, 1.8109350204, -0.5851676464, 1.3371868134, 1.1164672375, -1.8883233070, -0.6982095242, -1.4843754768, -1.1002316475, 0.8021664619, 
0.4325864315, 1.0266373158, -0.2328681946, -0.6856672764, 1.5083730221, 1.8229348660, -1.3587861061, 0.1859276295, 0.3090300560, 0.5512857437, 
0.1783039570, 1.6143789291, 1.3792407513, 0.3421268463, 0.6673846245, -1.5333656073, -1.8626568317, 0.3372633457, 1.1598165035, -1.7437579632, 
-0.7934812307, 0.1907391548, -1.9328230619, 0.6213510036, -0.4720741510, 1.1836442947, 0.7330276966, 0.8297164440, 1.6992685795, 1.6327960491, 
-0.3681172132, 0.1318550110, 0.6594336033, 1.3990147114, 1.4461877346, 0.1678066254, 1.2219493389, -1.9125983715, -1.6462656260, -0.4690204859, 
0.6386873722, 0.5320384502, -0.8546414375, 0.0179281235, -1.1258347034, 1.8127431870, 0.4845623970, -0.9884916544, 0.1500065327, -0.3556209803, 
-0.7322496176, 1.3565251827, 1.8351182938, -0.6650725603, -0.0221236944, -0.6369558573, -1.4814283848, -1.2890958786, -1.8072394133, -1.7821596861, 
-1.6562998295, -0.1753566265, 0.3496954441, 1.0031337738, -0.7763419151, -0.2041169405, -0.8290596008, -1.5543925762, -0.1167153120, -0.4753252268, 
-0.0234129429, -1.4780279398, -1.9432868958, 1.1219456196, 0.5399000645, -1.0691215992, 0.9346888065, -0.9755375385, -0.0576132536, -0.9153046608, 
0.6688416004, 1.2101371288, -1.5587794781, 0.5039598942, -1.4549353123, 0.4190967083, 1.8670039177, -0.9363638163, 1.1300008297, -1.9402354956, 
-0.7185235023, 1.4737010002, -0.1155921221, 1.6311719418, 0.4768347740, 1.1080658436, -0.5729451180, 1.6477751732, 1.5536735058, 1.3103396893, 
-0.8275500536, -0.4697395563, 1.8323116302, -0.7708369493, -1.3477938175, 0.3722116947, 0.1600415707, 1.5868949890, 1.3966741562, -1.8975718021, 
-1.3284096718, 0.0655157566, 1.3125655651, -0.8871892691, -1.4305244684, 1.8576300144, 1.5319075584, -1.5635205507, -1.0787336826, 0.6619083881, 
-1.5037560463, 0.2027428150, 0.1356093884, 0.3806519508, -0.1660852432, -1.3875557184, -0.5112820864, 1.2609696388, -1.7397805452, -0.9576086998, 
0.5713093281, -0.5673305988, 0.5726516247, 0.4036209583, 0.6618325710, 1.2248578072, -1.2241673470, -1.1781259775, 0.8117527962, -1.8274930716, 
-1.0756976604, 1.4833431244, 0.2380225658, -1.7631322145, -1.4038462639, 0.8074982166, -1.9055022001, -1.8719387054, 1.2439777851, -0.9842358828, 
0.7899696827, 1.7402217388, 1.2185070515, -1.0744208097, 0.1208734512, -0.9475783110, -0.4619765282, 1.6095914841, -1.6866086721, -0.2017570734, 
-1.3480172157, 0.8847005367, 1.2309124470, 1.2246344090, -0.7116785049, -0.1072551012, 0.4494922161, 0.0641541481, 0.7146189213, -0.7387549877, 
0.2366611958, 1.6389212608, -1.2554118633, -1.5253162384, 1.8757889271, -0.6592581272, 1.2821819782, 1.9702868462, -0.5311967134, 0.5261597633, 
-1.0139491558, -1.7412270308, 0.2663812637, -1.7954421043, -0.8156478405, -1.6127450466, -0.7430205345, 0.7223756313, 1.9968464375, -0.4296292067, 
-1.4793815613, -1.3511710167, -1.5449285507, 1.7515308857, 1.8734633923, -0.2566070557, -0.3557243347, 0.3229558468, 1.8075470924, -1.6411054134, 
1.5842008591, 0.0442082882, 1.9978158474, -1.6712111235, 0.5188922882, 1.8736047745, -0.3304692507, -0.1989257336, 1.8438916206, 1.1383340359, 
-1.6727660894, -1.1700574160, 1.3971068859, 0.5936152935, -0.9654995203, -1.4185409546, 0.9808702469, 0.2914800644, 1.3038346767, 0.9777164459, 
1.8618507385, 1.8244531155, 1.6265454292, -1.6830778122, 1.5759840012, 1.5000090599, 0.0603151321, -0.7797403336, -0.1770353317, -0.1321376562, 
-0.4208456278, -0.5928344727, 1.9120707512, -0.4230297804, -0.2640455961, 0.4309630394, -0.5494250059, 1.4054851532, -1.7679628134, -0.7055333853, 
0.5438191891, -1.4407289028, 0.1244091988, -0.0590738058, 1.1528863907, 1.1589097977, 0.5223853588, 0.1337563992, -0.5496103764, -0.1737799644, 
-0.8885270357, -0.6877595186, -0.3493267298, -1.2619814873, -0.3708373308, -0.7733427286, -1.7619725466, 1.6894779205, 0.4469168186, 0.0609922409, 
-0.4426598549, -1.9739288092, 1.4681575298, -0.5305891037, -0.3969585896, -0.7958879471, 1.9003739357, 1.0536162853, -1.3904027939, -1.8675889969, 
-1.6519169807, 1.1534163952, -1.3083178997, 0.4724922180, -0.9056572914, 1.8445682526, -0.3685979843, 1.6167280674, -0.0216752291, 1.0817916393, 
-0.5570518970, 1.0897977352, -1.6059678793, 1.0936212540, 1.8278162479, 0.0231947899, -1.6797214746, -1.9341564178, -0.2873274088, 0.7671954632, 
0.1268358231, 1.2700128555, 0.7932667732, -0.4050066471, -1.2605763674, -1.6036919355, 0.7991054058, -1.3602025509, 1.4499244690, 1.4087026119, 
-1.2277915478, 1.7980074883, 0.5621192455, -0.5361094475, 0.2704997063, 1.6564619541, -0.6915410757, 1.9019017220, 1.2731900215, 1.2867836952, 
0.9836933613, -1.2838619947, 0.3765814304, 1.3777253628, 1.8097593784, 0.2043976784, -0.5990797281, -1.8699622154, 0.2702412605, 1.1135928631, 
0.8972332478, -1.6029229164, 0.3836054802, -0.3094999790, -0.0079295635, 1.1230292320, 0.0868079662, -1.2088241577, 1.7628266811, -0.4632674456, 
-1.8001214266, -1.4649648666, -0.6652599573, 0.7619979382, -0.0010743141, 1.6052398682, 0.4184596539, 1.3073844910, 1.5071415901, -0.3083503246, 
0.5941681862, 0.4908349514, 0.4077877998, -1.0292502642, -0.1314396858, 0.2175471783, 1.1751472950, 1.2694807053, 0.3475849628, -0.5546113253, 
